{"learner":{"attributes":{},"feature_names":["f0","f1","f2","f3","f4","f5"],"feature_types":[],"gradient_booster":{"model":{"cats":{"enc":[],"feature_segments":[],"sorted_idx":[]},"gbtree_model_param":{"num_parallel_tree":"1","num_trees":"533"},"iteration_indptr":[0,1,2,3,4,5,6,7,8,9,10,11,12,13,14,15,16,17,18,19,20,21,22,23,24,25,26,27,28,29,30,31,32,33,34,35,36,37,38,39,40,41,42,43,44,45,46,47,48,49,50,51,52,53,54,55,56,57,58,59,60,61,62,63,64,65,66,67,68,69,70,71,72,73,74,75,76,77,78,79,80,81,82,83,84,85,86,87,88,89,90,91,92,93,94,95,96,97,98,99,100,101,102,103,104,105,106,107,108,109,110,111,112,113,114,115,116,117,118,119,120,121,122,123,124,125,126,127,128,129,130,131,132,133,134,135,136,137,138,139,140,141,142,143,144,145,146,147,148,149,150,151,152,153,154,155,156,157,158,159,160,161,162,163,164,165,166,167,168,169,170,171,172,173,174,175,176,177,178,179,180,181,182,183,184,185,186,187,188,189,190,191,192,193,194,195,196,197,198,199,200,201,202,203,204,205,206,207,208,209,210,211,212,213,214,215,216,217,218,219,220,221,222,223,224,225,226,227,228,229,230,231,232,233,234,235,236,237,238,239,240,241,242,243,244,245,246,247,248,249,250,251,252,253,254,255,256,257,258,259,260,261,262,263,264,265,266,267,268,269,270,271,272,273,274,275,276,277,278,279,280,281,282,283,284,285,286,287,288,289,290,291,292,293,294,295,296,297,298,299,300,301,302,303,304,305,306,307,308,309,310,311,312,313,314,315,316,317,318,319,320,321,322,323,324,325,326,327,328,329,330,331,332,333,334,335,336,337,338,339,340,341,342,343,344,345,346,347,348,349,350,351,352,353,354,355,356,357,358,359,360,361,362,363,364,365,366,367,368,369,370,371,372,373,374,375,376,377,378,379,380,381,382,383,384,385,386,387,388,389,390,391,392,393,394,395,396,397,398,399,400,401,402,403,404,405,406,407,408,409,410,411,412,413,414,415,416,417,418,419,420,421,422,423,424,425,426,427,428,429,430,431,432,433,434,435,436,437,438,439,440,441,442,443,444,445,446,447,448,449,450,451,452,453,454,455,456,457,458,459,460,461,462,463,464,465,466,467,468,469,470,471,472,473,474,475,476,477,478,479,480,481,482,483,484,485,486,487,488,489,490,491,492,493,494,495,496,497,498,499,500,501,502,503,504,505,506,507,508,509,510,511,512,513,514,515,516,517,518,519,520,521,522,523,524,525,526,527,528,529,530,531,532,533],"tree_info":[0,0,0,0,0,0,0,0,0,0,0,0,0,0,0,0,0,0,0,0,0,0,0,0,0,0,0,0,0,0,0,0,0,0,0,0,0,0,0,0,0,0,0,0,0,0,0,0,0,0,0,0,0,0,0,0,0,0,0,0,0,0,0,0,0,0,0,0,0,0,0,0,0,0,0,0,0,0,0,0,0,0,0,0,0,0,0,0,0,0,0,0,0,0,0,0,0,0,0,0,0,0,0,0,0,0,0,0,0,0,0,0,0,0,0,0,0,0,0,0,0,0,0,0,0,0,0,0,0,0,0,0,0,0,0,0,0,0,0,0,0,0,0,0,0,0,0,0,0,0,0,0,0,0,0,0,0,0,0,0,0,0,0,0,0,0,0,0,0,0,0,0,0,0,0,0,0,0,0,0,0,0,0,0,0,0,0,0,0,0,0,0,0,0,0,0,0,0,0,0,0,0,0,0,0,0,0,0,0,0,0,0,0,0,0,0,0,0,0,0,0,0,0,0,0,0,0,0,0,0,0,0,0,0,0,0,0,0,0,0,0,0,0,0,0,0,0,0,0,0,0,0,0,0,0,0,0,0,0,0,0,0,0,0,0,0,0,0,0,0,0,0,0,0,0,0,0,0,0,0,0,0,0,0,0,0,0,0,0,0,0,0,0,0,0,0,0,0,0,0,0,0,0,0,0,0,0,0,0,0,0,0,0,0,0,0,0,0,0,0,0,0,0,0,0,0,0,0,0,0,0,0,0,0,0,0,0,0,0,0,0,0,0,0,0,0,0,0,0,0,0,0,0,0,0,0,0,0,0,0,0,0,0,0,0,0,0,0,0,0,0,0,0,0,0,0,0,0,0,0,0,0,0,0,0,0,0,0,0,0,0,0,0,0,0,0,0,0,0,0,0,0,0,0,0,0,0,0,0,0,0,0,0,0,0,0,0,0,0,0,0,0,0,0,0,0,0,0,0,0,0,0,0,0,0,0,0,0,0,0,0,0,0,0,0,0,0,0,0,0,0,0,0,0,0,0,0,0,0,0,0,0,0,0,0,0,0,0,0,0,0,0,0,0,0,0,0,0,0,0,0,0,0,0,0,0,0,0,0,0,0,0,0,0,0,0,0,0,0,0,0,0,0,0,0,0,0,0,0,0,0,0,0,0,0,0,0,0,0,0,0,0,0,0,0,0,0,0,0,0,0,0,0],"trees":[{"base_weights":[-2.2532334E0,-2.439661E0,-1.9379674E0,-2.51508E0,-2.3147528E0,-2.1636295E0,-1.4918574E0,-2.596059E0,-2.4463515E0,-2.3729825E0,-1.8332684E0,-2.2071862E0,-2.3386216E-1,-1.6238818E0,2.973287E-2,-2.634486E0,-2.5738547E0,-2.5427814E0,-2.3092504E0,-2.4276667E0,-2.019324E0,-5.422494E-1,-3.7421572E-1,-2.2446628E0,-3.096626E-1,-1.9525408E0,-1.299926E0,-6.6389453E-1,-6.7197245E-1,-6.6172504E-1,-6.350585E-1,-6.679053E-1,-6.3008904E-1,-6.4011866E-1,-5.6350625E-1,-6.5110606E-1,-6.0421747E-1,-6.0170025E-1,-4.757969E-1,-6.4530313E-1,-5.508805E-1,-5.259296E-1,-3.8485336E-1,-3.9938405E-1,-2.271459E-1],"categories":[],"categories_nodes":[],"categories_segments":[],"categories_sizes":[],"default_left":[0,0,0,0,0,0,0,0,0,0,0,0,0,0,0,0,0,0,0,0,0,0,0,0,0,0,0,0,0,0,0,0,0,0,0,0,0,0,0,0,0,0,0,0,0],"id":0,"left_children":[1,3,5,7,9,11,13,15,17,19,21,23,-1,25,-1,27,29,31,33,35,37,-1,-1,39,-1,41,43,-1,-1,-1,-1,-1,-1,-1,-1,-1,-1,-1,-1,-1,-1,-1,-1,-1,-1],"loss_changes":[5.815381E1,5.85376E0,3.7013306E1,2.1535645E0,6.5600586E0,1.3205444E1,2.624057E1,1.4746094E-1,2.7685547E0,4.0352783E0,2.7489014E0,8.719727E0,0E0,1.215152E1,0E0,1.1779785E-2,2.7026367E-1,6.505127E-1,1.6278687E0,1.1516113E0,1.4147873E0,0E0,0E0,4.973877E0,0E0,2.9712677E0,6.378647E0,0E0,0E0,0E0,0E0,0E0,0E0,0E0,0E0,0E0,0E0,0E0,0E0,0E0,0E0,0E0,0E0,0E0,0E0],"parents":[2147483647,0,0,1,1,2,2,3,3,4,4,5,5,6,6,7,7,8,8,9,9,10,10,11,11,13,13,15,15,16,16,17,17,18,18,19,19,20,20,23,23,25,25,26,26],"right_children":[2,4,6,8,10,12,14,16,18,20,22,24,-1,26,-1,28,30,32,34,36,38,-1,-1,40,-1,42,44,-1,-1,-1,-1,-1,-1,-1,-1,-1,-1,-1,-1,-1,-1,-1,-1,-1,-1],"split_conditions":[3.2847157E1,3.1918488E1,3.0298147E1,4.983232E1,5.2538498E1,5.3866554E1,5.33119E1,4.8038723E1,2.9826311E1,3.1434536E1,2.9584274E1,3.5621803E1,-2.3386216E-1,5.002115E1,2.973287E-2,2.901149E1,3.01642E1,3.0742188E1,3.0546825E1,2.7726969E1,4.877362E1,-5.422494E-1,-3.7421572E-1,2.7104404E1,-3.096626E-1,3.445402E1,3.405544E1,-6.6389453E-1,-6.7197245E-1,-6.6172504E-1,-6.350585E-1,-6.679053E-1,-6.3008904E-1,-6.4011866E-1,-5.6350625E-1,-6.5110606E-1,-6.0421747E-1,-6.0170025E-1,-4.757969E-1,-6.4530313E-1,-5.508805E-1,-5.259296E-1,-3.8485336E-1,-3.9938405E-1,-2.271459E-1],"split_indices":[3,3,2,0,0,0,0,0,2,2,2,3,0,0,0,2,2,3,3,2,0,0,0,2,0,3,3,0,0,0,0,0,0,0,0,0,0,0,0,0,0,0,0,0,0],"split_type":[0,0,0,0,0,0,0,0,0,0,0,0,0,0,0,0,0,0,0,0,0,0,0,0,0,0,0,0,0,0,0,0,0,0,0,0,0,0,0,0,0,0,0,0,0],"sum_hessian":[9.895025E2,6.21805E2,3.6769748E2,3.8770352E2,2.3410149E2,2.4417892E2,1.2351856E2,1.7798122E2,2.0972229E2,2.0884247E2,2.5259026E1,2.3590398E2,8.274935E0,1.141526E2,9.365953E0,6.516165E1,1.1281957E2,1.2311901E2,8.660329E1,1.8087236E2,2.79701E1,1.3660402E1,1.1598622E1,2.2727014E2,8.633837E0,5.666357E1,5.7489037E1,2.9104456E1,3.6057194E1,7.583933E1,3.6980244E1,4.88751E1,7.424391E1,2.5261461E1,6.1341824E1,4.5054634E1,1.3581773E2,8.107779E0,1.9862322E1,4.474279E1,1.8252736E2,4.4383343E1,1.2280227E1,3.4259327E1,2.3229712E1],"tree_param":{"num_deleted":"0","num_feature":"6","num_nodes":"45","size_leaf_vector":"1"}},{"base_weights":[-1.064747E0,-1.4020615E0,-7.638007E-1,-1.6962707E0,-1.2983948E0,-1.2538984E0,-6.1617297E-1,-1.791572E0,-1.5121171E0,-1.533631E0,-1.1397641E0,-1.7518407E0,-1.1012852E0,-1.4918276E0,-5.280167E-1,-1.8387088E0,-1.7371091E0,-4.3884444E-1,-3.272907E-1,-1.6328692E0,-1.3017992E0,-1.3695418E0,-8.667831E-1,-4.8448578E-1,-4.0016752E-1,-1.3530848E0,-8.8427573E-1,-4.5240995E-1,-3.2792515E-1,-7.3145056E-1,-2.850848E-1,-4.611139E-1,-4.6878055E-1,-4.2475277E-1,-4.5540982E-1,-4.4678375E-1,-3.9663064E-1,-4.24001E-1,-2.914228E-1,-4.046999E-1,-3.134192E-1,-2.4581318E-1,-1.6306514E-1,-4.1626284E-1,-2.905538E-1,-2.5543237E-1,-1.2646165E-1,-2.579871E-1,-1.1541495E-1,-1.3481162E-1,-3.847488E-2],"categories":[],"categories_nodes":[],"categories_segments":[],"categories_sizes":[],"default_left":[0,0,0,0,0,0,0,0,0,0,0,0,0,0,0,0,0,0,0,0,0,0,0,0,0,0,0,0,0,0,0,0,0,0,0,0,0,0,0,0,0,0,0,0,0,0,0,0,0,0,0],"id":1,"left_children":[1,3,5,7,9,11,13,15,17,19,21,23,25,27,29,31,33,-1,-1,35,37,39,41,-1,-1,43,45,-1,-1,47,49,-1,-1,-1,-1,-1,-1,-1,-1,-1,-1,-1,-1,-1,-1,-1,-1,-1,-1,-1,-1],"loss_changes":[7.375891E1,1.04470215E1,2.7782333E1,1.5640869E0,9.451538E0,6.7530823E0,2.2779747E1,1.4822388E-1,1.4691467E0,2.3451996E0,9.489243E0,5.716858E-1,3.7163773E0,1.5650673E0,1.3250053E1,3.1738281E-3,9.680939E-2,0E0,0E0,6.3391113E-1,1.7281723E0,2.4847412E0,1.5812187E0,0E0,0E0,1.8808708E0,1.7269974E0,0E0,0E0,1.1517097E1,4.0154667E0,0E0,0E0,0E0,0E0,0E0,0E0,0E0,0E0,0E0,0E0,0E0,0E0,0E0,0E0,0E0,0E0,0E0,0E0,0E0,0E0],"parents":[2147483647,0,0,1,1,2,2,3,3,4,4,5,5,6,6,7,7,8,8,9,9,10,10,11,11,12,12,13,13,14,14,15,15,16,16,19,19,20,20,21,21,22,22,25,25,26,26,29,29,30,30],"right_children":[2,4,6,8,10,12,14,16,18,20,22,24,26,28,30,32,34,-1,-1,36,38,40,42,-1,-1,44,46,-1,-1,48,50,-1,-1,-1,-1,-1,-1,-1,-1,-1,-1,-1,-1,-1,-1,-1,-1,-1,-1,-1,-1],"split_conditions":[3.2457462E1,3.0742188E1,4.877362E1,3.0123465E1,4.9745575E1,4.714159E1,2.7056519E1,3.0213932E1,5.007969E1,3.2029697E1,2.9808094E1,2.9584274E1,2.943101E1,2.6124186E1,3.366834E1,4.893547E1,2.8315174E1,-4.3884444E-1,-3.272907E-1,4.8038723E1,4.7820328E1,2.7923079E1,3.1711378E1,-4.8448578E-1,-4.0016752E-1,3.3316456E1,3.433048E1,-4.5240995E-1,-3.2792515E-1,2.9844503E1,5.0346325E1,-4.611139E-1,-4.6878055E-1,-4.2475277E-1,-4.5540982E-1,-4.4678375E-1,-3.9663064E-1,-4.24001E-1,-2.914228E-1,-4.046999E-1,-3.134192E-1,-2.4581318E-1,-1.6306514E-1,-4.1626284E-1,-2.905538E-1,-2.5543237E-1,-1.2646165E-1,-2.579871E-1,-1.1541495E-1,-1.3481162E-1,-3.847488E-2],"split_indices":[3,3,0,2,0,0,2,3,0,3,2,2,2,2,3,0,2,0,0,0,0,2,2,0,0,3,3,0,0,2,0,0,0,0,0,0,0,0,0,0,0,0,0,0,0,0,0,0,0,0,0],"split_type":[0,0,0,0,0,0,0,0,0,0,0,0,0,0,0,0,0,0,0,0,0,0,0,0,0,0,0,0,0,0,0,0,0,0,0,0,0,0,0,0,0,0,0,0,0,0,0,0,0,0,0],"sum_hessian":[7.266069E2,3.426011E2,3.8400577E2,8.926249E1,2.5333862E2,8.889259E1,2.9511316E2,5.8818417E1,3.0444075E1,1.0203047E2,1.5130815E2,2.0851822E1,6.804077E1,2.6992018E1,2.6812115E2,3.1520506E1,2.729791E1,1.537184E1,1.5072235E1,7.1444176E1,3.0586296E1,8.215359E1,6.915457E1,1.0946155E1,9.905668E0,3.1493996E1,3.654678E1,1.095919E1,1.6032827E1,1.4592177E2,1.22199394E2,9.489211E0,2.2031294E1,1.3101926E1,1.4195984E1,2.5106936E1,4.6337242E1,8.959623E0,2.1626673E1,3.062796E1,5.1525627E1,4.7498314E1,2.1656256E1,1.32071295E1,1.8286865E1,2.7734816E1,8.811963E0,7.180086E1,7.412091E1,4.2937016E1,7.9262375E1],"tree_param":{"num_deleted":"0","num_feature":"6","num_nodes":"51","size_leaf_vector":"1"}},{"base_weights":[-4.7145903E-1,-9.78601E-1,2.510013E-1,-1.3084537E0,-6.3908535E-1,-2.2034317E-2,8.845032E-1,-1.4189129E0,-1.1774055E0,-1.0049746E0,-3.379722E-1,-5.395108E-1,2.6121178E-1,5.777178E-1,1.2784522E0,-1.3635209E0,-1.5829023E0,-1.2178833E0,-2.0978242E-1,-1.2358298E0,-7.801838E-1,-3.0370906E-1,-2.135063E-1,-9.1413933E-1,-6.8674766E-2,1.09182E-2,3.450822E-1,-1.2389717E-2,7.393269E-1,2.6371303E-1,1.435177E0,-3.1430152E-1,-3.6067975E-1,-4.8331273E-1,-3.5470027E-1,-2.853723E-1,-3.488603E-1,-3.8001436E-1,-2.9406118E-1,-2.651839E-1,-1.2425429E-1,-8.804528E-2,7.5533227E-3,-2.8639466E-1,-1.2872231E-1,-1.1751031E-1,2.6653698E-2,-3.1484436E-2,8.027E-2,6.656407E-2,1.4976636E-1,1.2697166E-1,3.140783E-1,4.0225783E-1,3.315346E-1],"categories":[],"categories_nodes":[],"categories_segments":[],"categories_sizes":[],"default_left":[0,0,0,0,0,0,0,0,0,0,0,0,0,0,0,0,0,0,0,0,0,0,0,0,0,0,0,0,0,0,0,0,0,0,0,0,0,0,0,0,0,0,0,0,0,0,0,0,0,0,0,0,0,0,0],"id":2,"left_children":[1,3,5,7,9,11,13,15,17,19,21,23,25,27,29,31,33,35,-1,37,39,-1,41,43,45,47,49,-1,51,-1,53,-1,-1,-1,-1,-1,-1,-1,-1,-1,-1,-1,-1,-1,-1,-1,-1,-1,-1,-1,-1,-1,-1,-1,-1],"loss_changes":[2.1317838E2,3.828363E1,4.1508358E1,2.5081177E0,1.8559486E1,2.4579992E1,8.733978E0,8.524475E-1,1.1238251E0,3.9451904E0,9.881279E0,1.046302E1,2.2748203E0,4.11499E0,1.1833649E0,5.079346E-1,1.4114914E0,1.0381317E0,0E0,7.525482E-1,2.9654217E0,0E0,2.6225646E0,2.8843365E0,1.8019091E0,1.122112E0,1.6459713E0,0E0,3.8463554E0,0E0,3.6676788E-1,0E0,0E0,0E0,0E0,0E0,0E0,0E0,0E0,0E0,0E0,0E0,0E0,0E0,0E0,0E0,0E0,0E0,0E0,0E0,0E0,0E0,0E0,0E0,0E0],"parents":[2147483647,0,0,1,1,2,2,3,3,4,4,5,5,6,6,7,7,8,8,9,9,10,10,11,11,12,12,13,13,14,14,15,15,16,16,17,17,19,19,20,20,22,22,23,23,24,24,25,25,26,26,28,28,30,30],"right_children":[2,4,6,8,10,12,14,16,18,20,22,24,26,28,30,32,34,36,-1,38,40,-1,42,44,46,48,50,-1,52,-1,54,-1,-1,-1,-1,-1,-1,-1,-1,-1,-1,-1,-1,-1,-1,-1,-1,-1,-1,-1,-1,-1,-1,-1,-1],"split_conditions":[5.6043922E1,5.4853905E1,5.758012E1,5.410761E1,5.027519E1,3.242348E1,5.1244095E1,3.3519836E1,3.4509926E1,3.2684658E1,3.107371E1,5.6786854E1,3.3017387E1,4.8524853E1,5.8074184E1,4.90857E1,5.325183E1,3.281836E1,-2.0978242E-1,3.0742188E1,5.552259E1,-3.0370906E-1,5.5661922E1,3.1818121E1,4.9439312E1,5.7021725E1,5.710475E1,-1.2389717E-2,3.366834E1,2.6371303E-1,3.286142E1,-3.1430152E-1,-3.6067975E-1,-4.8331273E-1,-3.5470027E-1,-2.853723E-1,-3.488603E-1,-3.8001436E-1,-2.9406118E-1,-2.651839E-1,-1.2425429E-1,-8.804528E-2,7.5533227E-3,-2.8639466E-1,-1.2872231E-1,-1.1751031E-1,2.6653698E-2,-3.1484436E-2,8.027E-2,6.656407E-2,1.4976636E-1,1.2697166E-1,3.140783E-1,4.0225783E-1,3.315346E-1],"split_indices":[1,1,1,1,0,3,0,3,3,3,3,1,3,0,1,0,1,3,0,3,1,0,1,3,0,1,1,0,3,0,3,0,0,0,0,0,0,0,0,0,0,0,0,0,0,0,0,0,0,0,0,0,0,0,0],"split_type":[0,0,0,0,0,0,0,0,0,0,0,0,0,0,0,0,0,0,0,0,0,0,0,0,0,0,0,0,0,0,0,0,0,0,0,0,0,0,0,0,0,0,0,0,0,0,0,0,0,0,0,0,0,0,0],"sum_hessian":[5.818331E2,3.4186008E2,2.3997307E2,1.7339636E2,1.6846371E2,1.6769621E2,7.2276855E1,9.408588E1,7.9310486E1,7.605055E1,9.241316E1,5.9321236E1,1.0837498E2,4.0634773E1,3.1642078E1,7.033406E1,2.3751812E1,7.109778E1,8.212706E0,3.7517437E1,3.853312E1,1.16930895E1,8.072007E1,3.3034958E1,2.6286278E1,2.7202433E1,8.117254E1,8.33123E0,3.2303543E1,1.2534318E1,1.910776E1,2.2380552E1,4.795351E1,8.656177E0,1.5095636E1,4.466729E1,2.6430489E1,8.495242E0,2.9022194E1,2.0143835E1,1.8389282E1,5.2115604E1,2.860447E1,2.1619802E1,1.14151535E1,8.037686E0,1.824859E1,1.88632E1,8.339234E0,6.070333E1,2.0469212E1,2.1842949E1,1.0460594E1,8.796377E0,1.0311383E1],"tree_param":{"num_deleted":"0","num_feature":"6","num_nodes":"55","size_leaf_vector":"1"}},{"base_weights":[-2.3078936E-1,-9.701013E-1,3.6759043E-1,-1.1947505E0,-7.005479E-1,-1.8356064E-3,8.224647E-1,-1.5308836E0,-1.0980017E0,-9.7718734E-1,-5.2911747E-1,-1.9352706E-1,4.4605445E-2,2.528744E-1,9.672856E-1,-3.4811527E-1,-4.3659893E-1,-1.1833508E0,-6.921891E-1,-3.583875E-1,-8.54896E-1,-7.799803E-1,-3.646698E-1,-1.0403976E-1,2.4184032E-1,-1.7592946E-1,2.873226E-1,7.324523E-1,1.2037193E0,-2.4610725E-1,-3.501372E-1,-9.4895E-2,-2.5643677E-1,-1.5734136E-1,-2.485593E-1,-1.3004975E-1,-2.3618169E-1,-1.310319E-1,-2.3176141E-2,-9.1447294E-2,3.8298402E-2,1.130495E-2,1.09914795E-1,-1.19904175E-1,2.7105898E-2,2.3186146E-1,1.34812E-1,3.411743E-1,2.7325377E-1],"categories":[],"categories_nodes":[],"categories_segments":[],"categories_sizes":[],"default_left":[0,0,0,0,0,0,0,0,0,0,0,0,0,0,0,0,0,0,0,0,0,0,0,0,0,0,0,0,0,0,0,0,0,0,0,0,0,0,0,0,0,0,0,0,0,0,0,0,0],"id":3,"left_children":[1,3,5,7,9,11,13,15,17,19,21,-1,23,25,27,-1,-1,29,31,-1,33,35,37,39,41,43,-1,45,47,-1,-1,-1,-1,-1,-1,-1,-1,-1,-1,-1,-1,-1,-1,-1,-1,-1,-1,-1,-1],"loss_changes":[2.167017E2,1.326741E1,4.5493736E1,3.8846893E0,4.7227554E0,5.280142E0,1.0007668E1,8.033638E-1,3.2130203E0,2.02771E0,2.536316E0,0E0,4.128077E0,9.278444E0,5.3696213E0,0E0,0E0,3.2161942E0,1.6338496E0,0E0,8.707428E-1,9.818926E-1,1.5410786E0,5.2498474E0,2.284691E0,1.3875061E0,0E0,1.7698956E0,8.594513E-1,0E0,0E0,0E0,0E0,0E0,0E0,0E0,0E0,0E0,0E0,0E0,0E0,0E0,0E0,0E0,0E0,0E0,0E0,0E0,0E0],"parents":[2147483647,0,0,1,1,2,2,3,3,4,4,5,5,6,6,7,7,8,8,9,9,10,10,12,12,13,13,14,14,17,17,18,18,20,20,21,21,22,22,23,23,24,24,25,25,27,27,28,28],"right_children":[2,4,6,8,10,12,14,16,18,20,22,-1,24,26,28,-1,-1,30,32,-1,34,36,38,40,42,44,-1,46,48,-1,-1,-1,-1,-1,-1,-1,-1,-1,-1,-1,-1,-1,-1,-1,-1,-1,-1,-1,-1],"split_conditions":[7.199366E0,6.2700057E0,8.466387E0,4.7914066E0,4.9869728E1,3.059737E1,3.1918488E1,5.0406017E1,3.426273E1,4.7726624E1,6.6823506E0,-1.9352706E-1,7.887046E0,9.699748E0,9.189023E0,-3.4811527E-1,-4.3659893E-1,3.240444E1,5.018092E1,-3.583875E-1,4.862098E1,5.093155E1,3.3501217E1,5.063056E1,3.3017387E1,5.0753204E1,2.873226E-1,3.3300575E1,5.014173E1,-2.4610725E-1,-3.501372E-1,-9.4895E-2,-2.5643677E-1,-1.5734136E-1,-2.485593E-1,-1.3004975E-1,-2.3618169E-1,-1.310319E-1,-2.3176141E-2,-9.1447294E-2,3.8298402E-2,1.130495E-2,1.09914795E-1,-1.19904175E-1,2.7105898E-2,2.3186146E-1,1.34812E-1,3.411743E-1,2.7325377E-1],"split_indices":[5,5,5,5,0,3,3,0,3,0,5,0,5,5,5,0,0,3,0,0,0,0,3,0,3,0,0,3,0,0,0,0,0,0,0,0,0,0,0,0,0,0,0,0,0,0,0,0,0],"split_type":[0,0,0,0,0,0,0,0,0,0,0,0,0,0,0,0,0,0,0,0,0,0,0,0,0,0,0,0,0,0,0,0,0,0,0,0,0,0,0,0,0,0,0,0,0,0,0,0,0],"sum_hessian":[4.8984274E2,2.1911815E2,2.7072458E2,1.1951221E2,9.9605934E1,1.4939354E2,1.2133106E2,2.6708897E1,9.2803314E1,3.8107277E1,6.1498657E1,8.593321E0,1.4080022E2,2.4596416E1,9.673464E1,1.4556036E1,1.2152862E1,7.6675354E1,1.6127954E1,8.353845E0,2.9753433E1,2.4349464E1,3.7149193E1,8.0288315E1,6.05119E1,1.6535404E1,8.061011E0,4.853325E1,4.8201393E1,3.67965E1,3.9878857E1,8.070885E0,8.05707E0,1.0332928E1,1.9420506E1,8.788957E0,1.5560509E1,2.3881716E1,1.3267476E1,4.0034176E1,4.025414E1,2.9800457E1,3.0711445E1,8.070058E0,8.465346E0,2.5508074E1,2.3025175E1,2.2798449E1,2.5402945E1],"tree_param":{"num_deleted":"0","num_feature":"6","num_nodes":"49","size_leaf_vector":"1"}},{"base_weights":[-1.12742595E-1,-7.6618606E-1,3.8336003E-1,-9.4110763E-1,-4.5525327E-1,-2.1298274E-1,4.468092E-1,-1.0825765E0,-5.8900946E-1,-7.8503907E-1,-2.3044877E-1,1.7105183E-1,6.14508E-1,-3.8867941E-1,-9.968319E-1,-3.3803484E-1,-3.1160462E-1,-2.7762067E-1,-1.1212244E-1,-1.8280035E-1,-5.931966E-2,-5.9705894E-2,2.219688E-1,5.063799E-1,8.882496E-1,-2.6857498E-1,-1.3247202E-1,-2.0196079E-1,-2.8070267E-2,-6.845459E-2,1.1682258E-2,1.0914281E-1,9.279773E-3,-3.396739E-2,1.4830336E-1,9.513846E-2,2.807827E-1],"categories":[],"categories_nodes":[],"categories_segments":[],"categories_sizes":[],"default_left":[0,0,0,0,0,0,0,0,0,0,0,0,0,0,0,0,0,0,0,0,0,0,0,0,0,0,0,0,0,0,0,0,0,0,0,0,0],"id":4,"left_children":[1,3,5,7,9,-1,11,13,15,17,19,21,23,-1,25,27,-1,-1,-1,-1,29,-1,31,33,35,-1,-1,-1,-1,-1,-1,-1,-1,-1,-1,-1,-1],"loss_changes":[1.3870375E2,1.0042091E1,1.887078E1,5.885048E0,4.928129E0,0E0,1.0691986E1,3.246994E0,5.4331493E0,2.8580952E0,3.3152242E0,1.8093281E0,4.2547874E0,0E0,2.0757065E0,2.5327835E0,0E0,0E0,0E0,0E0,6.501057E-1,0E0,2.9995396E0,5.159668E0,4.564415E0,0E0,0E0,0E0,0E0,0E0,0E0,0E0,0E0,0E0,0E0,0E0,0E0],"parents":[2147483647,0,0,1,1,2,2,3,3,4,4,6,6,7,7,8,8,9,9,10,10,11,11,12,12,14,14,15,15,20,20,22,22,23,23,24,24],"right_children":[2,4,6,8,10,-1,12,14,16,18,20,22,24,-1,26,28,-1,-1,-1,-1,30,-1,32,34,36,-1,-1,-1,-1,-1,-1,-1,-1,-1,-1,-1,-1],"split_conditions":[6.4399776E0,5.638061E0,2.6779154E1,3.0883116E1,5.0196552E1,-2.1298274E-1,7.383353E0,3.5407012E0,5.1265594E1,6.090113E0,2.863044E1,4.822081E1,8.988295E0,-3.8867941E-1,5.2800518E1,4.9225986E1,-3.1160462E-1,-2.7762067E-1,-1.1212244E-1,-1.8280035E-1,3.0045559E1,-5.9705894E-2,5.0522915E1,4.8284973E1,2.9498447E1,-2.6857498E-1,-1.3247202E-1,-2.0196079E-1,-2.8070267E-2,-6.845459E-2,1.1682258E-2,1.0914281E-1,9.279773E-3,-3.396739E-2,1.4830336E-1,9.513846E-2,2.807827E-1],"split_indices":[4,4,2,2,0,0,4,4,0,4,2,0,4,0,0,0,0,0,0,0,2,0,0,0,2,0,0,0,0,0,0,0,0,0,0,0,0],"split_type":[0,0,0,0,0,0,0,0,0,0,0,0,0,0,0,0,0,0,0,0,0,0,0,0,0,0,0,0,0,0,0,0,0,0,0,0,0],"sum_hessian":[4.2786575E2,1.846519E2,2.4321385E2,1.181704E2,6.64815E1,1.1996245E1,2.312176E2,8.429824E1,3.3872158E1,2.694715E1,3.9534348E1,8.74395E1,1.437781E2,1.3503506E1,7.079474E1,2.4323519E1,9.548641E0,1.4171396E1,1.2775754E1,1.0230768E1,2.9303581E1,9.734143E0,7.770535E1,1.0306868E2,4.070943E1,6.2637962E1,8.156775E0,8.068419E0,1.6255098E1,9.776748E0,1.9526833E1,3.659617E1,4.1109184E1,1.1215154E1,9.185353E1,1.2156926E1,2.8552504E1],"tree_param":{"num_deleted":"0","num_feature":"6","num_nodes":"37","size_leaf_vector":"1"}},{"base_weights":[-7.858969E-2,-2.563794E-1,-4.921014E-2,-2.063906E-1,-2.5561158E-2,-3.2437152E-1,1.4473399E-2,-2.0392631E-1,-2.0956624E-1,1.6277183E-4,1.3631372E-1,-1.2663318E-1,-2.3712963E-2,4.8979986E-2,-4.5898003E-3],"categories":[],"categories_nodes":[],"categories_segments":[],"categories_sizes":[],"default_left":[0,0,0,0,0,0,0,0,0,0,0,0,0,0,0],"id":5,"left_children":[1,-1,3,-1,5,7,9,-1,11,13,-1,-1,-1,-1,-1],"loss_changes":[1.0708218E1,0E0,6.852801E0,0E0,4.399803E0,2.3911853E0,2.4262612E0,0E0,1.1783549E0,1.1117008E0,0E0,0E0,0E0,0E0,0E0],"parents":[2147483647,0,0,2,2,4,4,5,5,6,6,8,8,9,9],"right_children":[2,-1,4,-1,6,8,10,-1,12,14,-1,-1,-1,-1,-1],"split_conditions":[3.0270939E1,-2.563794E-1,4.714159E1,-2.063906E-1,2.7666264E1,3.1818121E1,3.58403E1,-2.0392631E-1,2.6559282E1,2.8139389E1,1.3631372E-1,-1.2663318E-1,-2.3712963E-2,4.8979986E-2,-4.5898003E-3],"split_indices":[3,0,0,0,2,3,3,0,2,2,0,0,0,0,0],"split_type":[0,0,0,0,0,0,0,0,0,0,0,0,0,0,0],"sum_hessian":[3.9110663E2,1.1951655E1,3.79155E2,1.1378569E1,3.6777643E2,4.345443E1,3.24322E2,8.393976E0,3.5060455E1,3.1568262E2,8.639358E0,1.0032021E1,2.5028435E1,2.7293383E1,2.8838925E2],"tree_param":{"num_deleted":"0","num_feature":"6","num_nodes":"15","size_leaf_vector":"1"}},{"base_weights":[-5.7522054E-3,-5.2050257E-1,1.6466703E-1,-1.0277283E0,-3.1479818E-1,-8.718611E-2,5.0931835E-1,-8.565844E-1,-3.5799098E-1,-7.7242666E-1,-8.38277E-2,-5.858637E-1,2.1756379E-2,2.2839361E-1,6.4806813E-1,-2.5547522E-1,-1.8777205E-1,-8.378794E-2,-2.6608846E-1,-2.644708E-1,1.6687527E-1,-1.0214226E0,-1.2763488E-2,-2.4765155E-1,1.87625E-1,-6.987767E-2,1.7203753E-1,6.0127854E-1,2.2669691E-1,-2.1227099E-1,-2.503581E-2,-1.6850889E-1,-3.4739852E-1,-2.2197914E-1,-1.2738089E-2,-8.452062E-2,7.1321E-2,4.1688368E-2,-1.1965377E-1,2.1274331E-1,1.2353144E-1],"categories":[],"categories_nodes":[],"categories_segments":[],"categories_sizes":[],"default_left":[0,0,0,0,0,0,0,0,0,0,0,0,0,0,0,0,0,0,0,0,0,0,0,0,0,0,0,0,0,0,0,0,0,0,0,0,0,0,0,0,0],"id":6,"left_children":[1,3,5,7,9,11,13,15,-1,17,19,21,23,25,27,-1,-1,-1,-1,29,-1,31,-1,33,35,37,-1,39,-1,-1,-1,-1,-1,-1,-1,-1,-1,-1,-1,-1,-1],"loss_changes":[3.328279E1,9.845385E0,2.4741774E1,1.7847519E0,7.0961866E0,8.947396E0,4.6903687E0,3.2854176E-1,0E0,2.7513542E0,5.977477E0,6.8873453E0,6.0397744E0,5.3377705E0,9.2432785E-1,0E0,0E0,0E0,0E0,3.4035208E0,0E0,2.0223331E0,0E0,6.3785787E0,4.073389E0,2.2511144E0,0E0,1.8352299E0,0E0,0E0,0E0,0E0,0E0,0E0,0E0,0E0,0E0,0E0,0E0,0E0,0E0],"parents":[2147483647,0,0,1,1,2,2,3,3,4,4,5,5,6,6,7,7,9,9,10,10,11,11,12,12,13,13,14,14,19,19,21,21,23,23,24,24,25,25,27,27],"right_children":[2,4,6,8,10,12,14,16,-1,18,20,22,24,26,28,-1,-1,-1,-1,30,-1,32,-1,34,36,38,-1,40,-1,-1,-1,-1,-1,-1,-1,-1,-1,-1,-1,-1,-1],"split_conditions":[6.612487E0,5.5090675E1,5.6322567E1,5.1197414E1,5.5279593E0,5.4081547E1,7.691749E0,5.410761E1,-3.5799098E-1,5.602801E1,5.7690205E1,8.301499E0,5.025714E1,5.758012E1,5.819195E1,-2.5547522E-1,-1.8777205E-1,-8.378794E-2,-2.6608846E-1,4.932495E1,1.6687527E-1,5.014173E1,-1.2763488E-2,7.478875E0,5.4631714E1,5.1046795E1,1.7203753E-1,4.9298435E1,2.2669691E-1,-2.1227099E-1,-2.503581E-2,-1.6850889E-1,-3.4739852E-1,-2.2197914E-1,-1.2738089E-2,-8.452062E-2,7.1321E-2,4.1688368E-2,-1.1965377E-1,2.1274331E-1,1.2353144E-1],"split_indices":[5,1,1,0,5,1,5,1,0,1,1,5,0,1,1,0,0,0,0,0,0,0,0,5,1,0,0,0,0,0,0,0,0,0,0,0,0,0,0,0,0],"split_type":[0,0,0,0,0,0,0,0,0,0,0,0,0,0,0,0,0,0,0,0,0,0,0,0,0,0,0,0,0,0,0,0,0,0,0,0,0,0,0,0,0],"sum_hessian":[3.794034E2,9.4368126E1,2.8503528E2,2.722732E1,6.714081E1,1.6468817E2,1.203471E2,1.8825195E1,8.402123E0,2.2519402E1,4.4621407E1,2.9528402E1,1.3515977E2,3.9789906E1,8.055719E1,8.211758E0,1.0613439E1,8.66334E0,1.3856062E1,3.5881947E1,8.739457E0,1.628375E1,1.3244652E1,5.1503227E1,8.365654E1,2.392247E1,1.5867437E1,6.766404E1,1.2893157E1,8.059506E0,2.7822443E1,8.0355E0,8.248252E0,1.232868E1,3.9174545E1,1.2732254E1,7.0924286E1,1.5111837E1,8.810633E0,2.200311E1,4.5660927E1],"tree_param":{"num_deleted":"0","num_feature":"6","num_nodes":"41","size_leaf_vector":"1"}},{"base_weights":[-3.4930076E-2,-5.629158E-1,5.2285034E-2,-2.8794584E-1,-4.2423105E-1,-1.7690493E-1,7.311137E-2,-2.588979E-1,-2.5157687E-1,1.614964E-2,3.020468E-1,-4.2157745E-1,1.75597E-2,-1.7401011E-1,4.1868504E-2,1.476342E-1,2.1317194E-1,-1.827896E-1,-1.7092105E-2,-3.5673093E-2,2.3844158E-2,3.6516993E-3,9.7803414E-2],"categories":[],"categories_nodes":[],"categories_segments":[],"categories_sizes":[],"default_left":[0,0,0,0,0,0,0,0,0,0,0,0,0,0,0,0,0,0,0,0,0,0,0],"id":7,"left_children":[1,3,5,-1,7,-1,9,-1,11,13,15,17,-1,-1,19,-1,21,-1,-1,-1,-1,-1,-1],"loss_changes":[1.6158627E1,3.9457521E0,4.7009544E0,0E0,4.121284E0,0E0,3.8208504E0,0E0,1.6935908E0,4.2361097E0,1.4515772E0,2.148531E0,0E0,0E0,2.152585E0,0E0,1.5176516E0,0E0,0E0,0E0,0E0,0E0,0E0],"parents":[2147483647,0,0,1,1,2,2,4,4,6,6,8,8,9,9,10,10,11,11,14,14,16,16],"right_children":[2,4,6,-1,8,-1,10,-1,12,14,16,18,-1,-1,20,-1,22,-1,-1,-1,-1,-1,-1],"split_conditions":[4.9812846E0,3.5407012E0,5.313619E1,-2.8794584E-1,5.507109E1,-1.7690493E-1,8.508981E0,-2.588979E-1,3.0860136E1,2.6779154E1,2.8392824E1,5.682688E1,1.75597E-2,-1.7401011E-1,6.014051E0,1.476342E-1,5.6107548E1,-1.827896E-1,-1.7092105E-2,-3.5673093E-2,2.3844158E-2,3.6516993E-3,9.7803414E-2],"split_indices":[4,4,1,0,1,0,4,0,2,2,2,1,0,0,4,0,1,0,0,0,0,0,0],"split_type":[0,0,0,0,0,0,0,0,0,0,0,0,0,0,0,0,0,0,0,0,0,0,0],"sum_hessian":[3.5089874E2,4.974665E1,3.011521E2,9.705602E0,4.004105E1,8.140015E0,2.930121E2,8.989961E0,3.105109E1,2.3463506E2,5.837702E1,2.0296795E1,1.0754294E1,8.290964E0,2.263441E2,1.4067837E1,4.4309185E1,1.1006447E1,9.290348E0,5.028109E1,1.76063E2,2.0577805E1,2.3731379E1],"tree_param":{"num_deleted":"0","num_feature":"6","num_nodes":"23","size_leaf_vector":"1"}},{"base_weights":[-1.4386272E-2,-1.6178519E-1,1.3749532E-2,-1.6114673E-2,4.95944E-1,-1.7983282E-1,4.8315886E-2,6.8893256E-3,2.4337919E-1,-9.802112E-2,-4.171242E-1,-1.508212E-3,2.0376806E-1,2.0281354E-2,-1.4152089E-1,-2.2326808E-1,-2.1365149E-2,2.6820906E-2,-8.539698E-3,3.0169385E-2,1.5604956E-1],"categories":[],"categories_nodes":[],"categories_segments":[],"categories_sizes":[],"default_left":[0,0,0,0,0,0,0,0,0,0,0,0,0,0,0,0,0,0,0,0,0],"id":8,"left_children":[1,-1,3,5,7,9,11,-1,-1,13,15,17,19,-1,-1,-1,-1,-1,-1,-1,-1],"loss_changes":[5.918462E0,0E0,4.6498437E0,3.2072945E0,4.0901837E0,1.6666372E0,1.689976E0,0E0,0E0,5.2254415E0,3.3918185E0,5.6957376E-1,1.847872E0,0E0,0E0,0E0,0E0,0E0,0E0,0E0,0E0],"parents":[2147483647,0,0,2,2,3,3,4,4,5,5,6,6,9,9,10,10,11,11,12,12],"right_children":[2,-1,4,6,8,10,12,-1,-1,14,16,18,20,-1,-1,-1,-1,-1,-1,-1,-1],"split_conditions":[5.116203E0,-1.6178519E-1,9.970997E0,6.0498157E0,5.0829277E1,8.354578E0,8.574467E0,6.8893256E-3,2.4337919E-1,5.145754E1,5.0442677E1,4.918258E1,8.893516E0,2.0281354E-2,-1.4152089E-1,-2.2326808E-1,-2.1365149E-2,2.6820906E-2,-8.539698E-3,3.0169385E-2,1.5604956E-1],"split_indices":[5,0,5,4,0,5,5,0,0,0,0,0,4,0,0,0,0,0,0,0,0],"split_type":[0,0,0,0,0,0,0,0,0,0,0,0,0,0,0,0,0,0,0,0,0],"sum_hessian":[3.374526E2,1.4575097E1,3.228775E2,3.040457E2,1.883181E1,8.586687E1,2.1817883E2,9.361973E0,9.469836E0,6.3854397E1,2.2012466E1,1.6522028E2,5.295856E1,4.6035637E1,1.7818762E1,9.207275E0,1.2805192E1,3.8108967E1,1.27111305E2,4.390363E1,9.054931E0],"tree_param":{"num_deleted":"0","num_feature":"6","num_nodes":"21","size_leaf_vector":"1"}},{"base_weights":[-2.765382E-2,-4.242552E-2,1.1313752E-1,-1.0185161E-1,-2.4788491E-2,-1.0466242E-1,-1.4397398E-2,-3.524386E-2,1.10779606E-1,5.708852E-3,-2.8529892E-2,6.434053E-2,-4.1260794E-2],"categories":[],"categories_nodes":[],"categories_segments":[],"categories_sizes":[],"default_left":[0,0,0,0,0,0,0,0,0,0,0,0,0],"id":9,"left_children":[1,3,-1,-1,5,-1,7,9,11,-1,-1,-1,-1],"loss_changes":[2.332843E0,2.0476706E0,0E0,0E0,1.2418029E0,0E0,7.833813E-1,1.1475618E0,1.673657E0,0E0,0E0,0E0,0E0],"parents":[2147483647,0,0,1,1,4,4,6,6,7,7,8,8],"right_children":[2,4,-1,-1,6,-1,8,10,12,-1,-1,-1,-1],"split_conditions":[5.8855236E1,5.358531E1,1.1313752E-1,-1.0185161E-1,3.6967719E0,-1.0466242E-1,3.188678E1,7.269802E0,3.2888653E1,5.708852E-3,-2.8529892E-2,6.434053E-2,-4.1260794E-2],"split_indices":[1,1,0,0,4,0,2,4,2,0,0,0,0],"split_type":[0,0,0,0,0,0,0,0,0,0,0,0,0],"sum_hessian":[3.3349084E2,3.234053E2,1.0085555E1,1.5140929E1,3.0826437E2,8.043573E0,3.002208E2,2.573652E2,4.2855587E1,1.4723833E2,1.1012688E2,2.8151691E1,1.4703896E1],"tree_param":{"num_deleted":"0","num_feature":"6","num_nodes":"13","size_leaf_vector":"1"}},{"base_weights":[-5.909191E-3,-1.1369704E-1,4.283002E-2,-1.7802024E-1,1.6007712E-1,6.0335435E-2,-1.0513473E-1,-2.0270164E-1,-9.953943E-2,3.651341E-2,1.7611997E-1,-1.2790814E-1,-1.4907788E-2,2.688623E-1,-8.333003E-3,-7.569004E-2,3.091799E-1,4.3346014E-2,-5.5020425E-2,1.4093903E-1,3.770216E-2,-8.977708E-3,9.342264E-2,1.0096119E-1,2.2881757E-2],"categories":[],"categories_nodes":[],"categories_segments":[],"categories_sizes":[],"default_left":[0,0,0,0,0,0,0,0,0,0,0,0,0,0,0,0,0,0,0,0,0,0,0,0,0],"id":10,"left_children":[1,3,5,7,-1,9,-1,-1,11,13,15,-1,17,19,21,-1,23,-1,-1,-1,-1,-1,-1,-1,-1],"loss_changes":[1.7182697E0,4.878041E0,1.8024688E0,4.5681047E0,0E0,5.9817296E-1,0E0,0E0,2.8498623E0,1.8747871E0,2.3365166E0,0E0,2.582532E0,1.003026E0,1.5361146E0,0E0,5.616276E-1,0E0,0E0,0E0,0E0,0E0,0E0,0E0,0E0],"parents":[2147483647,0,0,1,1,2,2,3,3,5,5,8,8,9,9,10,10,12,12,13,13,14,14,16,16],"right_children":[2,4,6,8,-1,10,-1,-1,12,14,16,-1,18,20,22,-1,24,-1,-1,-1,-1,-1,-1,-1,-1],"split_conditions":[7.057876E0,5.843477E1,5.848185E1,4.85615E1,1.6007712E-1,5.729817E1,-1.0513473E-1,-2.0270164E-1,5.4853905E1,4.8587044E1,4.9225986E1,-1.2790814E-1,5.623629E1,7.936148E0,1.0149175E1,-7.569004E-2,5.1931686E1,4.3346014E-2,-5.5020425E-2,1.4093903E-1,3.770216E-2,-8.977708E-3,9.342264E-2,1.0096119E-1,2.2881757E-2],"split_indices":[5,1,1,0,0,1,0,0,1,0,0,0,1,5,5,0,0,0,0,0,0,0,0,0,0],"split_type":[0,0,0,0,0,0,0,0,0,0,0,0,0,0,0,0,0,0,0,0,0,0,0,0,0],"sum_hessian":[3.2706326E2,1.01844345E2,2.252189E2,9.3747536E1,8.0968075E0,2.1691571E2,8.303197E0,1.0517861E1,8.3229675E1,1.7990642E2,3.700929E1,1.4395481E1,6.883419E1,2.9108416E1,1.50798E2,8.104723E0,2.8904568E1,3.585366E1,3.298053E1,8.600323E0,2.0508093E1,1.4069208E2,1.0105936E1,2.0564875E1,8.339693E0],"tree_param":{"num_deleted":"0","num_feature":"6","num_nodes":"25","size_leaf_vector":"1"}},{"base_weights":[-1.9149972E-2,-1.2781829E-1,-1.5637914E-3,-3.8092233E-2,1.5716985E-1,-1.3248628E-1,7.210903E-2,5.192235E-1,-1.0977216E-2,-1.6733114E-1,-8.4959544E-2,3.2601166E-1,-1.2621909E-2,2.949268E-1,-2.1565469E-2,-1.4369199E-1,1.2430546E-1,4.4793817E-3,-5.2487794E-2,1.930265E-1,-6.0045486E-3,-5.220047E-2,2.056921E-2,-6.6218965E-2,4.209111E-2],"categories":[],"categories_nodes":[],"categories_segments":[],"categories_sizes":[],"default_left":[0,0,0,0,0,0,0,0,0,0,0,0,0,0,0,0,0,0,0,0,0,0,0,0,0],"id":11,"left_children":[1,-1,3,5,7,9,11,13,15,-1,17,19,21,-1,-1,23,-1,-1,-1,-1,-1,-1,-1,-1,-1],"loss_changes":[2.760095E0,0E0,1.81202E0,2.642858E0,3.5593448E0,3.4276044E0,2.521835E0,7.2075257E0,2.6538258E0,0E0,1.5707328E0,4.4601636E0,1.5904517E0,0E0,0E0,1.146424E0,0E0,0E0,0E0,0E0,0E0,0E0,0E0,0E0,0E0],"parents":[2147483647,0,0,2,2,3,3,4,4,5,5,6,6,7,7,8,8,10,10,11,11,12,12,15,15],"right_children":[2,-1,4,6,8,10,12,14,16,-1,18,20,22,-1,-1,24,-1,-1,-1,-1,-1,-1,-1,-1,-1],"split_conditions":[3.0546825E1,-1.2781829E-1,3.428571E1,7.1613894E0,5.9485707E0,4.822081E1,4.918258E1,4.9998264E1,8.681046E0,-1.6733114E-1,3.2832203E1,8.016732E0,5.0522915E1,2.949268E-1,-2.1565469E-2,5.185631E1,1.2430546E-1,4.4793817E-3,-5.2487794E-2,1.930265E-1,-6.0045486E-3,-5.220047E-2,2.056921E-2,-6.6218965E-2,4.209111E-2],"split_indices":[3,0,3,4,4,0,0,0,4,0,3,4,0,0,0,0,0,0,0,0,0,0,0,0,0],"split_type":[0,0,0,0,0,0,0,0,0,0,0,0,0,0,0,0,0,0,0,0,0,0,0,0,0],"sum_hessian":[3.2385962E2,1.133842E1,3.1252118E2,2.5405983E2,5.8461353E1,1.3684727E2,1.1721255E2,1.8541353E1,3.9920002E1,1.1317681E1,1.255296E2,2.932989E1,8.788266E1,8.980865E0,9.560489E0,3.1560184E1,8.359816E0,6.816084E1,5.736876E1,1.30738125E1,1.6256077E1,2.871031E1,5.917235E1,2.2888672E1,8.671514E0],"tree_param":{"num_deleted":"0","num_feature":"6","num_nodes":"25","size_leaf_vector":"1"}},{"base_weights":[-4.0280772E-3,-2.5799462E-1,1.4574713E-2,-1.3527374E-1,1.3012106E-2,-2.4471319E-1,3.2682292E-2,-1.2977535E-1,-1.42501E-2,-6.7555435E-2,4.792962E-2,-5.259579E-1,3.6862016E-1,1.159214E-1,-3.9090708E-2,-1.6858488E-1,-9.6532E-2,1.7581707E-1,-1.644051E-2,5.6252033E-2,4.112703E-3,1.05430685E-1,-1.9972961E-2],"categories":[],"categories_nodes":[],"categories_segments":[],"categories_sizes":[],"default_left":[0,0,0,0,0,0,0,0,0,0,0,0,0,0,0,0,0,0,0,0,0,0,0],"id":12,"left_children":[1,3,5,-1,-1,7,9,-1,-1,11,13,15,17,19,21,-1,-1,-1,-1,-1,-1,-1,-1],"loss_changes":[1.5058893E0,1.8519573E0,1.3941061E0,0E0,0E0,9.7471595E-1,4.2422125E-1,0E0,0E0,7.326594E0,1.4255605E0,3.593955E-1,2.6402645E0,1.4268099E0,1.9041643E0,0E0,0E0,0E0,0E0,0E0,0E0,0E0,0E0],"parents":[2147483647,0,0,1,1,2,2,5,5,6,6,9,9,10,10,11,11,12,12,13,13,14,14],"right_children":[2,4,6,-1,-1,8,10,-1,-1,12,14,16,18,20,22,-1,-1,-1,-1,-1,-1,-1,-1],"split_conditions":[5.6313925E0,7.322826E0,4.433068E0,-1.3527374E-1,1.3012106E-2,5.6043922E1,6.547641E0,-1.2977535E-1,-1.42501E-2,7.383353E0,7.269802E0,6.3223286E0,8.413009E0,8.001502E0,5.392824E1,-1.6858488E-1,-9.6532E-2,1.7581707E-1,-1.644051E-2,5.6252033E-2,4.112703E-3,1.05430685E-1,-1.9972961E-2],"split_indices":[5,4,4,0,0,1,5,0,0,4,4,4,4,5,1,0,0,0,0,0,0,0,0],"split_type":[0,0,0,0,0,0,0,0,0,0,0,0,0,0,0,0,0,0,0,0,0,0,0],"sum_hessian":[3.1871E2,2.1753916E1,2.9695605E2,1.1512021E1,1.0241896E1,1.9382107E1,2.7757394E2,8.023765E0,1.1358343E1,3.6642384E1,2.4093158E2,1.7866632E1,1.877575E1,1.3525743E2,1.0567414E2,9.148309E0,8.718325E0,1.0739291E1,8.036457E0,6.562008E1,6.963736E1,8.47225E0,9.720189E1],"tree_param":{"num_deleted":"0","num_feature":"6","num_nodes":"23","size_leaf_vector":"1"}},{"base_weights":[-6.0517807E-4,-1.0901668E-1,1.4252995E-2,-8.431913E-2,3.128144E-2,2.1091018E-2,7.558232E-2,6.77365E-2,-3.6977753E-2,-4.008207E-3,3.5545524E-2,-6.378182E-2,1.0221498E-2],"categories":[],"categories_nodes":[],"categories_segments":[],"categories_sizes":[],"default_left":[0,0,0,0,0,0,0,0,0,0,0,0,0],"id":13,"left_children":[1,-1,3,-1,5,7,-1,9,11,-1,-1,-1,-1],"loss_changes":[2.0266302E0,0E0,1.8129406E0,0E0,7.954143E-1,7.6394427E-1,0E0,9.456451E-1,2.0815642E0,0E0,0E0,0E0,0E0],"parents":[2147483647,0,0,2,2,4,4,5,5,7,7,8,8],"right_children":[2,-1,4,-1,6,8,-1,10,12,-1,-1,-1,-1],"split_conditions":[4.73906E1,-1.0901668E-1,5.370978E1,-8.431913E-2,5.4172344E1,5.0811325E1,7.558232E-2,7.605494E0,6.9542303E0,-4.008207E-3,3.5545524E-2,-6.378182E-2,1.0221498E-2],"split_indices":[0,0,1,0,0,0,0,5,5,0,0,0,0],"split_type":[0,0,0,0,0,0,0,0,0,0,0,0,0],"sum_hessian":[3.178296E2,1.063809E1,3.071915E2,1.4383296E1,2.928082E2,2.8203195E2,1.0776255E1,1.5640515E2,1.2562679E2,7.2599236E1,8.380592E1,3.3279247E1,9.234754E1],"tree_param":{"num_deleted":"0","num_feature":"6","num_nodes":"13","size_leaf_vector":"1"}},{"base_weights":[-1.4080707E-3,1.2899042E-2,-1.9372444E-1,-2.0829676E-2,1.364941E-1,-9.6982665E-2,2.4187583E-3,2.076182E-2,-9.044322E-2,2.3202203E-1,-1.2848561E-2,-1.4856958E-1,9.861203E-2,7.448713E-2,-1.6597871E-1,5.399344E-2,4.5615453E-1,-1.2642865E-1,2.2248834E-1,2.0924807E-3,-1.1034878E-1,-3.0208895E-2,7.9066575E-2,-6.299796E-2,8.168271E-2,-6.2520064E-2,5.9452917E-2,1.9543344E-1,2.8646784E-2,3.56018E-2,7.595107E-2],"categories":[],"categories_nodes":[],"categories_segments":[],"categories_sizes":[],"default_left":[0,0,0,0,0,0,0,0,0,0,0,0,0,0,0,0,0,0,0,0,0,0,0,0,0,0,0,0,0,0,0],"id":14,"left_children":[1,3,5,7,9,-1,-1,11,13,15,17,19,21,-1,23,25,27,-1,29,-1,-1,-1,-1,-1,-1,-1,-1,-1,-1,-1,-1],"loss_changes":[8.696608E-1,1.2262678E0,8.389691E-1,6.6909087E-1,8.9984906E-1,0E0,0E0,1.9067948E0,2.5072062E0,1.5345213E0,2.810898E0,2.046155E0,4.595697E0,0E0,2.9017732E0,1.1616154E0,1.8355243E0,0E0,1.04384005E-1,0E0,0E0,0E0,0E0,0E0,0E0,0E0,0E0,0E0,0E0,0E0,0E0],"parents":[2147483647,0,0,1,1,2,2,3,3,4,4,7,7,8,8,9,9,10,10,11,11,12,12,14,14,15,15,16,16,18,18],"right_children":[2,4,6,8,10,-1,-1,12,14,16,18,20,22,-1,24,26,28,-1,30,-1,-1,-1,-1,-1,-1,-1,-1,-1,-1,-1,-1],"split_conditions":[3.503816E1,3.3847107E1,5.0847694E1,5.6537888E1,5.0911438E1,-9.6982665E-2,2.4187583E-3,3.20096E1,3.125372E1,4.978868E1,5.5407917E1,5.1197414E1,5.0693855E1,7.448713E-2,3.353724E1,5.592155E1,5.5673916E1,-1.2642865E-1,5.671138E1,2.0924807E-3,-1.1034878E-1,-3.0208895E-2,7.9066575E-2,-6.299796E-2,8.168271E-2,-6.2520064E-2,5.9452917E-2,1.9543344E-1,2.8646784E-2,3.56018E-2,7.595107E-2],"split_indices":[3,3,0,1,0,0,0,3,3,0,1,0,0,0,3,1,1,0,1,0,0,0,0,0,0,0,0,0,0,0,0],"split_type":[0,0,0,0,0,0,0,0,0,0,0,0,0,0,0,0,0,0,0,0,0,0,0,0,0,0,0,0,0,0,0],"sum_hessian":[3.160288E2,2.9414346E2,2.188535E1,2.310782E2,6.306525E1,1.1354946E1,1.0530404E1,1.4464795E2,8.643027E1,3.8464886E1,2.4600367E1,4.5554592E1,9.909335E1,1.4204009E1,7.222626E1,2.143889E1,1.7025995E1,8.032329E0,1.6568037E1,2.9434984E1,1.6119606E1,4.901118E1,5.0082172E1,6.1799274E1,1.0426978E1,8.040927E0,1.33979645E1,8.888255E0,8.137739E0,8.013438E0,8.554599E0],"tree_param":{"num_deleted":"0","num_feature":"6","num_nodes":"31","size_leaf_vector":"1"}},{"base_weights":[9.180967E-3,-2.0932468E-2,9.173027E-2,-1.455863E-1,1.801956E-2,3.424724E-2,9.893402E-2,-2.5230378E-1,1.2032948E-2,5.0465662E-2,-1.1740917E-1,1.4470282E-1,-1.4442472E-1,-1.2224954E-1,-4.04626E-2,5.4573618E-2,-4.6890385E-2,2.862771E-1,-1.35117015E-2,3.748239E-1,-2.2718975E-2,-1.0916388E-1,1.2725963E-2,4.435536E-2,-6.264246E-2,4.5217157E-4,9.642595E-2,1.09914035E-1,-1.1524527E-2,2.7902864E-2,1.6752793E-1,4.6485055E-2,-3.092628E-2,-2.567453E-2,3.409495E-2],"categories":[],"categories_nodes":[],"categories_segments":[],"categories_sizes":[],"default_left":[0,0,0,0,0,0,0,0,0,0,0,0,0,0,0,0,0,0,0,0,0,0,0,0,0,0,0,0,0,0,0,0,0,0,0],"id":15,"left_children":[1,3,5,7,9,11,-1,13,15,17,-1,19,21,-1,23,-1,-1,25,27,29,31,-1,33,-1,-1,-1,-1,-1,-1,-1,-1,-1,-1,-1,-1],"loss_changes":[7.7036816E-1,1.1025283E0,1.4198002E0,9.094918E-1,2.6984584E0,1.370625E0,0E0,1.5674405E0,8.7247366E-1,2.445034E0,0E0,1.6538143E0,1.1920781E0,0E0,7.4535286E-1,0E0,0E0,9.227359E-1,1.8172134E0,1.366431E0,5.0742644E-1,0E0,2.3729077E-1,0E0,0E0,0E0,0E0,0E0,0E0,0E0,0E0,0E0,0E0,0E0,0E0],"parents":[2147483647,0,0,1,1,2,2,3,3,4,4,5,5,7,7,8,8,9,9,11,11,12,12,14,14,17,17,18,18,19,19,20,20,22,22],"right_children":[2,4,6,8,10,12,-1,14,16,18,-1,20,22,-1,24,-1,-1,26,28,30,32,-1,34,-1,-1,-1,-1,-1,-1,-1,-1,-1,-1,-1,-1],"split_conditions":[5.7021725E1,5.9914618E0,5.2583076E1,5.592155E1,5.346276E1,5.0502357E1,9.893402E-2,5.0829277E1,5.637021E1,6.66903E0,-1.1740917E-1,5.752407E1,5.11542E1,-1.2224954E-1,5.1756927E1,5.4573618E-2,-4.6890385E-2,4.9368797E1,5.3631687E1,4.9368797E1,5.907606E0,-1.0916388E-1,6.8715153E0,4.435536E-2,-6.264246E-2,4.5217157E-4,9.642595E-2,1.09914035E-1,-1.1524527E-2,2.7902864E-2,1.6752793E-1,4.6485055E-2,-3.092628E-2,-2.567453E-2,3.409495E-2],"split_indices":[1,4,0,1,0,0,0,0,1,4,0,1,0,0,0,0,0,0,1,0,4,0,4,0,0,0,0,0,0,0,0,0,0,0,0],"split_type":[0,0,0,0,0,0,0,0,0,0,0,0,0,0,0,0,0,0,0,0,0,0,0,0,0,0,0,0,0,0,0,0,0,0,0],"sum_hessian":[3.098847E2,2.2705089E2,8.283381E1,5.4060863E1,1.7299002E2,6.944996E1,1.3383853E1,3.2237732E1,2.1823133E1,1.6205553E2,1.0934495E1,4.292005E1,2.6529905E1,1.5470231E1,1.67675E1,1.0743395E1,1.1079738E1,3.458583E1,1.27469696E2,1.8076828E1,2.4843224E1,9.412226E0,1.711768E1,8.206539E0,8.560962E0,8.57748E0,2.600835E1,8.497298E0,1.189724E2,9.3791895E0,8.697638E0,8.073237E0,1.6769987E1,8.837435E0,8.280246E0],"tree_param":{"num_deleted":"0","num_feature":"6","num_nodes":"35","size_leaf_vector":"1"}},{"base_weights":[-3.1319833E-3,-7.487799E-2,4.9667515E-2,-1.1514147E-1,1.7411396E-1,5.960108E-4,2.3888302E-1,-6.1295077E-2,-3.470185E-1,-4.4002607E-2,1.1588685E-1,2.0701626E-1,-1.0125362E-1,-5.3240176E-2,5.5423194E-1,8.5648E-3,-2.8686625E-1,-1.3709578E-1,-3.5118096E-2,4.9715668E-1,1.1699523E-2,-4.590017E-2,-1.1700897E-1,-4.3359526E-2,2.1120805E-2,2.1009332E-1,6.287609E-2,-8.4441826E-2,3.7479665E-2,3.7946463E-2,-1.4699097E-1,2.1140988E-1,1.7720234E-2,-8.221059E-2,6.705032E-2,-1.038586E-1,-1.4781122E-3],"categories":[],"categories_nodes":[],"categories_segments":[],"categories_sizes":[],"default_left":[0,0,0,0,0,0,0,0,0,0,0,0,0,0,0,0,0,0,0,0,0,0,0,0,0,0,0,0,0,0,0,0,0,0,0,0,0],"id":16,"left_children":[1,3,5,7,9,11,13,15,17,-1,-1,19,21,23,25,27,29,-1,-1,31,33,35,-1,-1,-1,-1,-1,-1,-1,-1,-1,-1,-1,-1,-1,-1,-1],"loss_changes":[1.1681774E0,1.3106287E0,1.6492312E0,1.4048915E0,1.7878535E0,2.9656503E0,3.369997E0,1.4394312E0,8.549552E-1,0E0,0E0,2.6408424E0,1.8816309E0,3.0501655E-1,1.4755225E0,3.3131452E0,2.757832E0,0E0,0E0,2.6927218E0,2.3623784E0,1.1921852E0,0E0,0E0,0E0,0E0,0E0,0E0,0E0,0E0,0E0,0E0,0E0,0E0,0E0,0E0,0E0],"parents":[2147483647,0,0,1,1,2,2,3,3,4,4,5,5,6,6,7,7,8,8,11,11,12,12,13,13,14,14,15,15,16,16,19,19,20,20,21,21],"right_children":[2,4,6,8,10,12,14,16,18,-1,-1,20,22,24,26,28,30,-1,-1,32,34,36,-1,-1,-1,-1,-1,-1,-1,-1,-1,-1,-1,-1,-1,-1,-1],"split_conditions":[2.9542847E1,5.2583076E1,8.867651E0,8.910268E0,7.839902E0,6.866086E0,3.125864E1,2.8963396E1,9.609123E0,-4.4002607E-2,1.1588685E-1,3.0627731E1,3.2426945E1,9.501226E0,9.501226E0,6.9542303E0,7.044274E0,-1.3709578E-1,-3.5118096E-2,6.126602E0,6.106433E0,2.9826311E1,-1.1700897E-1,-4.3359526E-2,2.1120805E-2,2.1009332E-1,6.287609E-2,-8.4441826E-2,3.7479665E-2,3.7946463E-2,-1.4699097E-1,2.1140988E-1,1.7720234E-2,-8.221059E-2,6.705032E-2,-1.038586E-1,-1.4781122E-3],"split_indices":[2,0,5,5,5,5,2,2,5,0,0,2,2,5,5,5,5,0,0,5,5,2,0,0,0,0,0,0,0,0,0,0,0,0,0,0,0],"split_type":[0,0,0,0,0,0,0,0,0,0,0,0,0,0,0,0,0,0,0,0,0,0,0,0,0,0,0,0,0,0,0,0,0,0,0,0,0],"sum_hessian":[3.083721E2,1.3073528E2,1.7763683E2,1.1253949E2,1.8195782E1,1.4105797E2,3.6578857E1,9.1333015E1,2.1206474E1,8.160311E0,1.0035472E1,4.660619E1,9.445178E1,1.8987787E1,1.759107E1,6.973382E1,2.1599195E1,1.10032625E1,1.0203212E1,1.874997E1,2.7856218E1,8.186468E1,1.2587105E1,1.0199345E1,8.788444E0,9.287086E0,8.303984E0,2.0192616E1,4.9541203E1,8.666693E0,1.2932503E1,1.0493492E1,8.256478E0,1.1958456E1,1.5897762E1,8.12779E0,7.3736885E1],"tree_param":{"num_deleted":"0","num_feature":"6","num_nodes":"37","size_leaf_vector":"1"}},{"base_weights":[-4.4775237E-3,-2.3466678E-1,1.0811352E-2,-1.6362451E-1,1.7294718E-2,2.231534E-3,7.158644E-2,1.3442809E-2,-7.1892746E-2,5.427282E-4,1.0752587E-1,1.2484684E-2,-1.700075E-2],"categories":[],"categories_nodes":[],"categories_segments":[],"categories_sizes":[],"default_left":[0,0,0,0,0,0,0,0,0,0,0,0,0],"id":17,"left_children":[1,3,5,-1,-1,7,-1,9,-1,11,-1,-1,-1],"loss_changes":[1.078731E0,2.3723435E0,6.689242E-1,0E0,0E0,8.918651E-1,0E0,1.4188695E0,0E0,8.544401E-1,0E0,0E0,0E0],"parents":[2147483647,0,0,1,1,2,2,5,5,7,7,9,9],"right_children":[2,4,6,-1,-1,8,-1,10,-1,12,-1,-1,-1],"split_conditions":[5.392824E1,7.985452E0,1.0057016E1,-1.6362451E-1,1.7294718E-2,9.429566E0,7.158644E-2,9.132945E0,-7.1892746E-2,8.018739E0,1.0752587E-1,1.2484684E-2,-1.700075E-2],"split_indices":[1,5,4,0,0,4,0,4,0,5,0,0,0],"split_type":[0,0,0,0,0,0,0,0,0,0,0,0,0],"sum_hessian":[3.0647693E2,1.9090284E1,2.8738663E2,8.107683E0,1.09826E1,2.7858087E2,8.80576E0,2.6806073E2,1.0520153E1,2.5989294E2,8.167773E0,1.5106827E2,1.0882468E2],"tree_param":{"num_deleted":"0","num_feature":"6","num_nodes":"13","size_leaf_vector":"1"}},{"base_weights":[-3.5821253E-3,5.000693E-2,-5.0295014E-2,1.861805E-1,-5.317624E-2,-1.930683E-1,2.5140287E-2,4.7043848E-1,-1.0174849E-1,-2.0111172E-1,7.167649E-2,-3.699123E-1,-1.5573734E-2,-1.09634236E-1,1.6401364E-1,3.6380082E-2,7.624126E-1,-2.9138783E-1,1.0270737E-1,-1.308253E-1,-8.787719E-2,1.1686412E-1,-3.8951695E-2,-8.324988E-3,-1.5883508E-1,6.2825754E-2,-7.998876E-2,-4.332181E-1,4.5079764E-2,4.781398E-1,-4.5527503E-2,1.0232038E-1,2.8489593E-1,2.1548867E-2,-1.4129885E-1,5.7003383E-2,-8.170846E-2,-9.38589E-2,2.5959076E-2,-3.898683E-2,-1.7054367E-1,-5.7533763E-2,4.1416004E-2,3.3573683E-2,1.8824841E-1,-4.7843747E-2,7.747025E-2],"categories":[],"categories_nodes":[],"categories_segments":[],"categories_sizes":[],"default_left":[0,0,0,0,0,0,0,0,0,0,0,0,0,0,0,0,0,0,0,0,0,0,0,0,0,0,0,0,0,0,0,0,0,0,0,0,0,0,0,0,0,0,0,0,0,0,0],"id":18,"left_children":[1,3,5,7,9,11,13,15,17,19,21,23,25,27,29,-1,31,33,-1,-1,35,-1,37,-1,-1,-1,-1,39,41,43,45,-1,-1,-1,-1,-1,-1,-1,-1,-1,-1,-1,-1,-1,-1,-1,-1],"loss_changes":[7.584503E-1,1.9826349E0,1.7435887E0,4.97878E0,1.4826939E0,1.7564635E0,1.9824226E0,2.9223266E0,2.902965E0,1.3083148E0,1.8733419E0,2.4202552E0,2.203678E0,2.6910787E0,3.4340224E0,0E0,2.0927362E0,2.1977706E0,0E0,0E0,1.9777716E0,0E0,1.5849323E0,0E0,0E0,0E0,0E0,1.1611948E0,1.1680982E0,1.9042912E0,1.5706983E0,0E0,0E0,0E0,0E0,0E0,0E0,0E0,0E0,0E0,0E0,0E0,0E0,0E0,0E0,0E0,0E0],"parents":[2147483647,0,0,1,1,2,2,3,3,4,4,5,5,6,6,7,7,8,8,9,9,10,10,11,11,12,12,13,13,14,14,16,16,17,17,20,20,22,22,27,27,28,28,29,29,30,30],"right_children":[2,4,6,8,10,12,14,16,18,20,22,24,26,28,30,-1,32,34,-1,-1,36,-1,38,-1,-1,-1,-1,40,42,44,46,-1,-1,-1,-1,-1,-1,-1,-1,-1,-1,-1,-1,-1,-1,-1,-1],"split_conditions":[3.2832203E1,5.5687557E1,5.5647877E1,2.9755587E1,2.9808094E1,3.3932663E1,3.0045559E1,3.2049217E1,3.1981255E1,3.1390627E1,3.107371E1,3.3270077E1,3.0045559E1,5.6338642E1,5.640812E1,3.6380082E-2,2.8708143E1,5.465382E1,1.0270737E-1,-1.308253E-1,3.2110744E1,1.1686412E-1,3.1818121E1,-8.324988E-3,-1.5883508E-1,6.2825754E-2,-7.998876E-2,5.5975815E1,3.348162E1,3.3635242E1,5.774096E1,1.0232038E-1,2.8489593E-1,2.1548867E-2,-1.4129885E-1,5.7003383E-2,-8.170846E-2,-9.38589E-2,2.5959076E-2,-3.898683E-2,-1.7054367E-1,-5.7533763E-2,4.1416004E-2,3.3573683E-2,1.8824841E-1,-4.7843747E-2,7.747025E-2],"split_indices":[3,1,1,2,2,3,2,3,2,3,3,3,2,1,1,0,2,1,0,0,3,0,3,0,0,0,0,1,3,3,1,0,0,0,0,0,0,0,0,0,0,0,0,0,0,0,0],"split_type":[0,0,0,0,0,0,0,0,0,0,0,0,0,0,0,0,0,0,0,0,0,0,0,0,0,0,0,0,0,0,0,0,0,0,0,0,0,0,0,0,0,0,0,0,0,0,0],"sum_hessian":[3.0297977E2,1.4109854E2,1.6188124E2,6.0827953E1,8.0270584E1,5.5965443E1,1.059158E2,3.0610096E1,3.0217857E1,3.6741287E1,4.3529297E1,2.803229E1,2.7933153E1,5.3748947E1,5.216685E1,1.443915E1,1.6170946E1,2.1987986E1,8.229872E0,9.723647E0,2.701764E1,9.640091E0,3.3889206E1,1.2105102E1,1.5927189E1,1.4871196E1,1.3061956E1,1.7387205E1,3.6361744E1,2.0875187E1,3.1291664E1,8.102828E0,8.068118E0,9.096044E0,1.2891942E1,1.1571285E1,1.5446354E1,1.013845E1,2.3750755E1,8.015302E0,9.371903E0,1.1015088E1,2.5346657E1,9.036055E0,1.1839131E1,2.223026E1,9.061403E0],"tree_param":{"num_deleted":"0","num_feature":"6","num_nodes":"47","size_leaf_vector":"1"}},{"base_weights":[-9.64518E-3,-5.863063E-2,7.083034E-2,3.9247915E-2,-1.5070307E-1,3.033434E-2,9.342609E-2,8.3657816E-2,-5.7397813E-2,-2.1820915E-1,1.3038953E-1,-5.2781567E-2,1.6654575E-1,-8.3606154E-2,1.7410679E-1,-1.232132E-1,-4.3344477E-1,-2.0660287E-2,8.778003E-2,-1.0765095E-2,-8.1928045E-2,-7.071056E-2,4.095101E-1,-5.68564E-2,1.623886E-2,1.1435675E-1,1.1771993E-2,-1.09606214E-1,-1.679054E-2,-5.1911026E-2,-2.0931922E-1,-2.0961E-2,5.3499848E-2,3.3491876E-2,-6.6759735E-2,1.5432912E-1,5.1819596E-2],"categories":[],"categories_nodes":[],"categories_segments":[],"categories_sizes":[],"default_left":[0,0,0,0,0,0,0,0,0,0,0,0,0,0,0,0,0,0,0,0,0,0,0,0,0,0,0,0,0,0,0,0,0,0,0,0,0],"id":19,"left_children":[1,3,5,7,9,11,-1,13,-1,15,17,19,21,23,25,27,29,-1,-1,31,-1,33,35,-1,-1,-1,-1,-1,-1,-1,-1,-1,-1,-1,-1,-1,-1],"loss_changes":[1.1813241E0,1.6788483E0,1.3654078E0,1.0645008E0,1.8215592E0,1.1299175E0,0E0,1.170351E0,0E0,1.5823231E0,8.490787E-1,7.0327777E-1,2.1804583E0,5.6313264E-1,1.7735385E0,9.455533E-1,2.123228E0,0E0,0E0,8.5416627E-1,0E0,7.465522E-1,7.6203847E-1,0E0,0E0,0E0,0E0,0E0,0E0,0E0,0E0,0E0,0E0,0E0,0E0,0E0,0E0],"parents":[2147483647,0,0,1,1,2,2,3,3,4,4,5,5,7,7,9,9,10,10,11,11,12,12,13,13,14,14,15,15,16,16,19,19,21,21,22,22],"right_children":[2,4,6,8,10,12,-1,14,-1,16,18,20,22,24,26,28,30,-1,-1,32,-1,34,36,-1,-1,-1,-1,-1,-1,-1,-1,-1,-1,-1,-1,-1,-1],"split_conditions":[8.183171E0,3.2847157E1,3.464085E1,8.704573E0,8.480481E0,7.5238247E0,9.342609E-2,6.340771E0,-5.7397813E-2,7.215969E0,7.156055E0,7.1815286E0,3.2847157E1,3.2029697E1,6.5121183E0,3.3257565E1,7.395735E0,-2.0660287E-2,8.778003E-2,6.686481E0,-8.1928045E-2,8.446398E0,3.3369602E1,-5.68564E-2,1.623886E-2,1.1435675E-1,1.1771993E-2,-1.09606214E-1,-1.679054E-2,-5.1911026E-2,-2.0931922E-1,-2.0961E-2,5.3499848E-2,3.3491876E-2,-6.6759735E-2,1.5432912E-1,5.1819596E-2],"split_indices":[5,3,3,4,4,4,0,4,0,4,5,4,3,3,5,3,5,0,0,4,0,4,3,0,0,0,0,0,0,0,0,0,0,0,0,0,0],"split_type":[0,0,0,0,0,0,0,0,0,0,0,0,0,0,0,0,0,0,0,0,0,0,0,0,0,0,0,0,0,0,0,0,0,0,0,0,0],"sum_hessian":[2.9966794E2,1.8628424E2,1.1338369E2,9.029199E1,9.5992256E1,9.9797874E1,1.3585815E1,7.735489E1,1.293711E1,7.740513E1,1.858712E1,6.1975967E1,3.7821903E1,2.714675E1,5.0208138E1,5.370508E1,2.3700056E1,9.374496E0,9.212624E0,5.3636368E1,8.339599E0,1.9134548E1,1.8687355E1,1.3910444E1,1.3236305E1,1.5855363E1,3.435277E1,8.370006E0,4.533507E1,1.4960373E1,8.739682E0,4.0506977E1,1.3129392E1,9.316637E0,9.817912E0,9.491171E0,9.196185E0],"tree_param":{"num_deleted":"0","num_feature":"6","num_nodes":"37","size_leaf_vector":"1"}},{"base_weights":[-6.5016635E-3,-1.5294968E-1,5.2938503E-3,1.5067262E-2,-7.0750296E-2,3.1872015E-2,-7.691086E-2,9.41714E-2,-1.1720771E-1,-2.5486317E-1,3.034902E-1,-2.1477303E-1,1.3340175E-1,1.1112077E-1,-2.376204E-1,-3.2674032E-1,1.7928936E-2,1.1170693E-1,3.8877465E-2,4.3361984E-2,-1.5207782E-1,-1.5218297E-2,4.1381117E-2,-9.734281E-2,-3.2156367E-2,-2.6820386E-2,-1.11766495E-1],"categories":[],"categories_nodes":[],"categories_segments":[],"categories_sizes":[],"default_left":[0,0,0,0,0,0,0,0,0,0,0,0,0,0,0,0,0,0,0,0,0,0,0,0,0,0,0],"id":20,"left_children":[1,3,5,-1,-1,7,9,11,13,15,17,19,21,-1,23,25,-1,-1,-1,-1,-1,-1,-1,-1,-1,-1,-1],"loss_changes":[5.091042E-1,5.875403E-1,5.957778E-1,0E0,0E0,1.913947E0,4.5097737E0,1.7615196E0,4.0602217E0,1.0621979E0,4.3609238E-1,2.4296908E0,7.410276E-1,0E0,8.0799484E-1,9.3491936E-1,0E0,0E0,0E0,0E0,0E0,0E0,0E0,0E0,0E0,0E0,0E0],"parents":[2147483647,0,0,1,1,2,2,5,5,6,6,7,7,8,8,9,9,10,10,11,11,12,12,14,14,15,15],"right_children":[2,4,6,-1,-1,8,10,12,14,16,18,20,22,-1,24,26,-1,-1,-1,-1,-1,-1,-1,-1,-1,-1,-1],"split_conditions":[5.4081547E1,2.9029938E1,3.3951405E1,1.5067262E-2,-7.0750296E-2,3.0883116E1,3.0905203E1,5.4853905E1,5.5033176E1,3.536011E1,5.618547E1,2.8869139E1,2.7519054E1,1.1112077E-1,5.6322567E1,5.5699135E1,1.7928936E-2,1.1170693E-1,3.8877465E-2,4.3361984E-2,-1.5207782E-1,-1.5218297E-2,4.1381117E-2,-9.734281E-2,-3.2156367E-2,-2.6820386E-2,-1.11766495E-1],"split_indices":[1,2,3,0,0,2,2,1,1,3,1,2,2,0,1,1,0,0,0,0,0,0,0,0,0,0,0],"split_type":[0,0,0,0,0,0,0,0,0,0,0,0,0,0,0,0,0,0,0,0,0,0,0,0,0,0,0],"sum_hessian":[2.94666E2,2.1968115E1,2.7269788E2,8.176245E0,1.3791869E1,2.0607713E2,6.662075E1,1.4534329E2,6.0733837E1,4.5389233E1,2.1231518E1,1.6374626E1,1.2896866E2,1.0823313E1,4.9910526E1,3.7181477E1,8.207759E0,1.1109995E1,1.0121523E1,8.175694E0,8.198932E0,1.7171486E1,1.1179718E2,2.1533804E1,2.8376722E1,1.2639614E1,2.454186E1],"tree_param":{"num_deleted":"0","num_feature":"6","num_nodes":"27","size_leaf_vector":"1"}},{"base_weights":[-1.35317305E-2,-2.1681577E-2,5.2325197E-2,-1.816907E-1,-9.5488755E-3,-1.04303725E-1,2.2155426E-3,1.8876822E-1,-2.4438642E-2,-1.8549457E-2,1.1011656E-1,-1.5261645E-2,-6.844353E-2,-3.763155E-2,-2.2876875E-4],"categories":[],"categories_nodes":[],"categories_segments":[],"categories_sizes":[],"default_left":[0,0,0,0,0,0,0,0,0,0,0,0,0,0,0],"id":21,"left_children":[1,3,-1,5,7,-1,-1,9,11,-1,-1,13,-1,-1,-1],"loss_changes":[5.2648586E-1,5.5022734E-1,0E0,8.730442E-1,7.780165E-1,0E0,0E0,1.1821139E0,5.5169356E-1,0E0,0E0,4.5139796E-1,0E0,0E0,0E0],"parents":[2147483647,0,0,1,1,3,3,4,4,7,7,8,8,11,11],"right_children":[2,4,-1,6,8,-1,-1,10,12,-1,-1,14,-1,-1,-1],"split_conditions":[3.3132637E1,3.0974081E1,5.2325197E-2,2.995818E1,3.1438251E1,-1.04303725E-1,2.2155426E-3,7.691749E0,3.2561756E1,-1.8549457E-2,1.1011656E-1,5.9332576E0,-6.844353E-2,-3.763155E-2,-2.2876875E-4],"split_indices":[2,3,0,2,3,0,0,5,2,0,0,5,0,0,0],"split_type":[0,0,0,0,0,0,0,0,0,0,0,0,0,0,0],"sum_hessian":[2.9399472E2,2.8348547E2,1.050924E1,1.9976606E1,2.6350888E2,9.061466E0,1.0915139E1,1.839973E1,2.4510915E2,8.897444E0,9.502286E0,2.3627402E2,8.835115E0,2.3009321E1,2.1326471E2],"tree_param":{"num_deleted":"0","num_feature":"6","num_nodes":"15","size_leaf_vector":"1"}},{"base_weights":[5.102562E-3,-2.8843086E-2,8.963389E-2,-4.7919102E-2,7.810671E-2,-1.3591121E-3,1.7719927E-1,-9.2671886E-2,-3.4308437E-2,1.4195351E-1,-1.8518114E-1,1.1113823E-1,4.0432442E-2,1.0270962E-1,-6.498748E-2,1.1640915E-1,-2.2381207E-2,-9.773909E-2,-3.5085673E-3,1.9106483E-1,-7.6856494E-2,-4.7222644E-2,8.218758E-2,-3.5433844E-2,9.349109E-3,8.6401045E-2,2.1379353E-2],"categories":[],"categories_nodes":[],"categories_segments":[],"categories_sizes":[],"default_left":[0,0,0,0,0,0,0,0,0,0,0,0,0,0,0,0,0,0,0,0,0,0,0,0,0,0,0],"id":22,"left_children":[1,3,5,7,-1,9,11,-1,13,15,17,-1,19,21,23,-1,-1,-1,-1,25,-1,-1,-1,-1,-1,-1,-1],"loss_changes":[8.353479E-1,1.3338835E0,6.64711E-1,8.487927E-1,0E0,1.0775466E0,1.5163778E0,0E0,7.9225785E-1,1.6765072E0,6.141199E-1,0E0,1.4425147E0,2.2033875E0,1.1712948E0,0E0,0E0,0E0,0E0,3.0926883E-1,0E0,0E0,0E0,0E0,0E0,0E0,0E0],"parents":[2147483647,0,0,1,1,2,2,3,3,5,5,6,6,8,8,9,9,10,10,12,12,13,13,14,14,19,19],"right_children":[2,4,6,8,-1,10,12,-1,14,16,18,-1,20,22,24,-1,-1,-1,-1,26,-1,-1,-1,-1,-1,-1,-1],"split_conditions":[5.693361E1,9.694901E0,6.890239E0,2.7056519E1,7.810671E-2,5.7853613E0,7.5784993E0,-9.2671886E-2,2.8337547E1,2.9667395E1,2.9881344E1,1.1113823E-1,3.076946E1,6.9876533E0,3.0788227E1,1.1640915E-1,-2.2381207E-2,-9.773909E-2,-3.5085673E-3,2.8759281E1,-7.6856494E-2,-4.7222644E-2,8.218758E-2,-3.5433844E-2,9.349109E-3,8.6401045E-2,2.1379353E-2],"split_indices":[1,4,4,2,0,4,4,0,2,2,2,0,2,4,2,0,0,0,0,2,0,0,0,0,0,0,0],"split_type":[0,0,0,0,0,0,0,0,0,0,0,0,0,0,0,0,0,0,0,0,0,0,0,0,0,0,0],"sum_hessian":[2.911025E2,2.0769176E2,8.341077E1,1.9655801E2,1.1133751E1,4.090152E1,4.2509243E1,8.081062E0,1.8847694E2,2.2981382E1,1.792014E1,1.4619338E1,2.7889906E1,3.44769E1,1.5400005E2,9.67023E0,1.33111515E1,8.265458E0,9.654681E0,1.9387014E1,8.502892E0,1.4952781E1,1.9524118E1,8.884992E1,6.515012E1,8.075812E0,1.1311202E1],"tree_param":{"num_deleted":"0","num_feature":"6","num_nodes":"27","size_leaf_vector":"1"}},{"base_weights":[3.2592663E-3,-5.676524E-2,3.325363E-2,-1.0228684E-1,-2.4720741E-2,5.0283555E-2,-7.493164E-2,-1.9087784E-1,3.578594E-2,-1.4115386E-2,1.21489264E-1,-5.606601E-3,-1.3113773E-1,1.114971E-1,-5.343187E-2,-6.0239468E-2,6.522908E-2,2.364172E-1,-2.0427908E-1,-6.411198E-2,4.1836742E-2,1.9564878E-2,-4.358622E-2,4.5877066E-2,1.578045E-1,2.637268E-2,-1.7551951E-1],"categories":[],"categories_nodes":[],"categories_segments":[],"categories_sizes":[],"default_left":[0,0,0,0,0,0,0,0,0,0,0,0,0,0,0,0,0,0,0,0,0,0,0,0,0,0,0],"id":23,"left_children":[1,3,5,-1,7,9,-1,11,13,15,17,-1,-1,-1,19,21,-1,23,25,-1,-1,-1,-1,-1,-1,-1,-1],"loss_changes":[5.2752036E-1,1.083441E0,1.0932697E0,0E0,8.984897E-1,8.5188425E-1,0E0,1.3124194E0,2.359486E0,1.2200958E0,3.3030736E0,0E0,0E0,0E0,2.3341951E0,1.2775306E0,0E0,1.3973093E0,3.4577496E0,0E0,0E0,0E0,0E0,0E0,0E0,0E0,0E0],"parents":[2147483647,0,0,1,1,2,2,4,4,5,5,7,7,8,8,9,9,10,10,14,14,15,15,17,17,18,18],"right_children":[2,4,6,-1,8,10,-1,12,14,16,18,-1,-1,-1,20,22,-1,24,26,-1,-1,-1,-1,-1,-1,-1,-1],"split_conditions":[7.2300234E0,3.1101576E1,3.5234238E1,-1.0228684E-1,5.53905E1,3.2908646E1,-7.493164E-2,3.338729E1,5.578305E1,5.766089E1,5.693361E1,-5.606601E-3,-1.3113773E-1,1.114971E-1,3.3443165E1,5.544274E1,6.522908E-2,9.65448E0,8.387652E0,-6.411198E-2,4.1836742E-2,1.9564878E-2,-4.358622E-2,4.5877066E-2,1.578045E-1,2.637268E-2,-1.7551951E-1],"split_indices":[5,3,3,0,1,3,0,3,1,1,1,0,0,0,3,1,0,5,5,0,0,0,0,0,0,0,0],"split_type":[0,0,0,0,0,0,0,0,0,0,0,0,0,0,0,0,0,0,0,0,0,0,0,0,0,0,0],"sum_hessian":[2.9300977E2,9.762435E1,1.9538542E2,8.264152E0,8.93602E1,1.8576051E2,9.624905E0,2.3856773E1,6.5503426E1,9.7538086E1,8.822243E1,1.5720504E1,8.136269E0,1.18572035E1,5.3646225E1,8.336382E1,1.4174261E1,6.521655E1,2.3005869E1,2.8048893E1,2.559733E1,3.7360153E1,4.6003674E1,5.700141E1,8.215142E0,1.4094416E1,8.911454E0],"tree_param":{"num_deleted":"0","num_feature":"6","num_nodes":"27","size_leaf_vector":"1"}},{"base_weights":[-1.6986063E-2,-8.981579E-2,1.6345797E-2,-1.5432873E-1,6.621315E-2,1.066097E-1,-5.240375E-2,6.602997E-2,-2.3013814E-1,-1.1643801E-1,3.609945E-1,4.0937933E-1,4.0996345E-3,-1.1709359E-1,9.2473574E-2,-1.17337056E-1,-4.0255463E-1,1.1624565E-1,6.9390215E-2,1.6700803E-1,6.58491E-2,1.1905092E-1,-9.055214E-2,6.2425632E-2,-2.451355E-1,-1.20409936E-1,2.751925E-1,-9.356665E-2,1.279296E-3,-1.0422056E-2,-1.5771554E-1,-4.057476E-2,8.416536E-2,-1.2170001E-1,1.83046E-2,-2.4694864E-2,9.029732E-2,-1.680938E-2,-1.1644573E-1,1.1366654E-1,2.689308E-2],"categories":[],"categories_nodes":[],"categories_segments":[],"categories_sizes":[],"default_left":[0,0,0,0,0,0,0,0,0,0,0,0,0,0,0,0,0,0,0,0,0,0,0,0,0,0,0,0,0,0,0,0,0,0,0,0,0,0,0,0,0],"id":24,"left_children":[1,3,5,7,9,11,13,-1,15,-1,17,19,21,23,25,27,29,-1,-1,-1,-1,31,33,35,37,-1,39,-1,-1,-1,-1,-1,-1,-1,-1,-1,-1,-1,-1,-1,-1],"loss_changes":[6.983702E-1,9.092593E-1,1.2246583E0,2.0085843E0,4.089987E0,2.6479669E0,1.0498531E0,0E0,1.0504656E0,0E0,1.4343786E-1,8.0420136E-1,6.9358253E-1,1.7802029E0,3.5825026E0,1.0054255E0,1.691788E0,0E0,0E0,0E0,0E0,1.7084212E0,2.2135286E0,1.5118358E0,1.7289143E0,0E0,7.643788E-1,0E0,0E0,0E0,0E0,0E0,0E0,0E0,0E0,0E0,0E0,0E0,0E0,0E0,0E0],"parents":[2147483647,0,0,1,1,2,2,3,3,4,4,5,5,6,6,8,8,10,10,11,11,12,12,13,13,14,14,15,15,16,16,21,21,22,22,23,23,24,24,26,26],"right_children":[2,4,6,8,10,12,14,-1,16,-1,18,20,22,24,26,28,30,-1,-1,-1,-1,32,34,36,38,-1,40,-1,-1,-1,-1,-1,-1,-1,-1,-1,-1,-1,-1,-1,-1],"split_conditions":[2.8918749E1,7.9408946E0,6.7382364E0,4.8652695E1,5.006008E1,2.9861925E1,5.1539852E1,6.602997E-2,6.8367653E0,-1.1643801E-1,5.1265594E1,5.419724E0,5.0364048E1,4.95082E1,2.99366E1,5.0364048E1,5.029381E1,1.1624565E-1,6.9390215E-2,1.6700803E-1,6.58491E-2,3.1145672E1,5.261752E0,8.480481E0,7.9652414E0,-1.20409936E-1,7.850655E0,-9.356665E-2,1.279296E-3,-1.0422056E-2,-1.5771554E-1,-4.057476E-2,8.416536E-2,-1.2170001E-1,1.83046E-2,-2.4694864E-2,9.029732E-2,-1.680938E-2,-1.1644573E-1,1.1366654E-1,2.689308E-2],"split_indices":[2,4,4,0,0,2,0,0,4,0,0,4,0,0,2,0,0,0,0,0,0,2,4,4,4,0,4,0,0,0,0,0,0,0,0,0,0,0,0,0,0],"split_type":[0,0,0,0,0,0,0,0,0,0,0,0,0,0,0,0,0,0,0,0,0,0,0,0,0,0,0,0,0,0,0,0,0,0,0,0,0,0,0,0,0],"sum_hessian":[2.8766666E2,9.032511E1,1.9734155E2,6.3905926E1,2.6419182E1,8.532446E1,1.1201709E2,9.877591E0,5.4028336E1,9.497175E0,1.6922007E1,2.1580046E1,6.3744423E1,7.744221E1,3.457488E1,3.266291E1,2.1365427E1,8.0118065E0,8.910201E0,8.106927E0,1.3473119E1,2.878832E1,3.49561E1,3.2238335E1,4.5203873E1,8.424588E0,2.615029E1,1.0693643E1,2.1969267E1,8.06428E0,1.3301148E1,1.2452525E1,1.6335796E1,1.0307114E1,2.4648987E1,2.087378E1,1.1364555E1,2.4616491E1,2.0587383E1,1.2933541E1,1.3216749E1],"tree_param":{"num_deleted":"0","num_feature":"6","num_nodes":"41","size_leaf_vector":"1"}},{"base_weights":[-1.6911279E-3,2.2572447E-1,-1.828775E-2,-1.4008386E-2,1.1530508E-1,-8.687018E-3,-7.3238865E-2,-1.7120706E-1,8.78801E-3,9.065901E-2,-4.2508274E-1,-1.1041932E-1,4.6490982E-2,-8.251631E-2,-1.3499048E-1,-1.2482338E-1,-6.3368627E-3,2.8130582E-2,-1.5279514E-2],"categories":[],"categories_nodes":[],"categories_segments":[],"categories_sizes":[],"default_left":[0,0,0,0,0,0,0,0,0,0,0,0,0,0,0,0,0,0,0],"id":25,"left_children":[1,3,5,-1,-1,7,-1,9,11,-1,13,15,17,-1,-1,-1,-1,-1,-1],"loss_changes":[1.0661949E0,1.2350914E0,6.833601E-1,0E0,0E0,7.2226304E-1,0E0,3.3132029E0,1.0318453E0,0E0,1.7763114E-1,1.7982057E0,1.1986214E0,0E0,0E0,0E0,0E0,0E0,0E0],"parents":[2147483647,0,0,1,1,2,2,5,5,7,7,8,8,10,10,11,11,12,12],"right_children":[2,4,6,-1,-1,8,-1,10,12,-1,14,16,18,-1,-1,-1,-1,-1,-1],"split_conditions":[2.72674E1,7.985452E0,3.3294724E1,-1.4008386E-2,1.1530508E-1,2.7994415E1,-7.3238865E-2,6.3031416E0,5.9304175E0,9.065901E-2,7.919188E0,2.9029938E1,3.0665325E1,-8.251631E-2,-1.3499048E-1,-1.2482338E-1,-6.3368627E-3,2.8130582E-2,-1.5279514E-2],"split_indices":[2,5,2,0,0,2,0,4,4,0,5,2,2,0,0,0,0,0,0],"split_type":[0,0,0,0,0,0,0,0,0,0,0,0,0,0,0,0,0,0,0],"sum_hessian":[2.8251852E2,1.921301E1,2.633055E2,8.622117E0,1.0590894E1,2.5427942E2,9.026087E0,2.4690191E1,2.2958922E2,8.010448E0,1.6679743E1,5.5162594E1,1.7442664E2,8.632435E0,8.047309E0,1.0090257E1,4.5072334E1,1.0879097E2,6.563566E1],"tree_param":{"num_deleted":"0","num_feature":"6","num_nodes":"19","size_leaf_vector":"1"}},{"base_weights":[9.12111E-3,-5.675155E-2,4.7425885E-2,2.2002954E-2,-2.0240827E-1,7.542797E-3,2.1012455E-1,9.395992E-2,-1.17458835E-1,-3.5403982E-1,4.337483E-2,4.0294845E-2,-1.5954067E-1,3.8475117E-1,-2.9666321E-3,1.7667548E-1,-4.7094323E-2,-2.2312258E-1,-1.6359417E-1,8.644022E-2,-9.497223E-2,-7.606892E-2,-1.0000329E-3,1.5426905E-1,2.0764431E-2,-2.6967146E-2,1.01531714E-1,7.371362E-2,-8.133117E-2,1.1489695E-2,-1.12607405E-1,-4.06067E-2,2.9635085E-2,-5.25991E-2,3.4624845E-2],"categories":[],"categories_nodes":[],"categories_segments":[],"categories_sizes":[],"default_left":[0,0,0,0,0,0,0,0,0,0,0,0,0,0,0,0,0,0,0,0,0,0,0,0,0,0,0,0,0,0,0,0,0,0,0],"id":26,"left_children":[1,3,5,7,9,11,13,15,-1,17,-1,19,21,23,-1,25,27,29,-1,31,33,-1,-1,-1,-1,-1,-1,-1,-1,-1,-1,-1,-1,-1,-1],"loss_changes":[7.14345E-1,1.1941373E0,1.1615087E0,2.3574436E0,2.0684006E0,7.8672904E-1,1.3653051E0,6.86483E-1,0E0,9.8858213E-1,0E0,7.5038236E-1,5.141677E-1,1.3335361E0,0E0,2.3460207E0,2.007932E0,1.0618484E0,0E0,6.710724E-1,7.9517365E-1,0E0,0E0,0E0,0E0,0E0,0E0,0E0,0E0,0E0,0E0,0E0,0E0,0E0,0E0],"parents":[2147483647,0,0,1,1,2,2,3,3,4,4,5,5,6,6,7,7,9,9,11,11,12,12,13,13,15,15,16,16,17,17,19,19,20,20],"right_children":[2,4,6,8,10,12,14,16,-1,18,-1,20,22,24,-1,26,28,30,-1,32,34,-1,-1,-1,-1,-1,-1,-1,-1,-1,-1,-1,-1,-1,-1],"split_conditions":[5.5612484E1,8.372423E0,8.867651E0,3.440556E1,3.382781E1,5.7975227E1,9.570944E0,5.5131454E1,-1.17458835E-1,3.28807E1,4.337483E-2,3.3951405E1,3.3200806E1,3.303108E1,-2.9666321E-3,3.238854E1,3.2214462E1,5.447433E1,-1.6359417E-1,6.037391E0,5.7083897E1,-7.606892E-2,-1.0000329E-3,1.5426905E-1,2.0764431E-2,-2.6967146E-2,1.01531714E-1,7.371362E-2,-8.133117E-2,1.1489695E-2,-1.12607405E-1,-4.06067E-2,2.9635085E-2,-5.25991E-2,3.4624845E-2],"split_indices":[1,5,5,3,3,1,5,1,0,3,0,3,3,3,0,3,3,1,0,5,1,0,0,0,0,0,0,0,0,0,0,0,0,0,0],"split_type":[0,0,0,0,0,0,0,0,0,0,0,0,0,0,0,0,0,0,0,0,0,0,0,0,0,0,0,0,0,0,0,0,0,0,0],"sum_hessian":[2.831084E2,1.0408969E2,1.790187E2,6.755805E1,3.6531643E1,1.4377771E2,3.5240997E1,5.883078E1,8.727268E0,2.5981833E1,1.0549809E1,1.2021639E2,2.3561314E1,1.9719421E1,1.5521576E1,3.7086895E1,2.1743889E1,1.7917618E1,8.064216E0,8.964066E1,3.0575731E1,1.2387724E1,1.117359E1,1.1349483E1,8.369938E0,1.6366056E1,2.0720837E1,9.729511E0,1.2014378E1,8.084511E0,9.833107E0,9.830912E0,7.980975E1,2.0585394E1,9.990336E0],"tree_param":{"num_deleted":"0","num_feature":"6","num_nodes":"35","size_leaf_vector":"1"}},{"base_weights":[-5.3546294E-3,-1.8567422E-2,1.8937938E-1,-3.619988E-3,-8.1731886E-2,1.629649E-2,8.309986E-2,-6.9228575E-2,1.273135E-2,1.358454E-1,-1.10943895E-2,1.1471194E-2,6.2111795E-2,-2.258876E-2,1.2027425E-2],"categories":[],"categories_nodes":[],"categories_segments":[],"categories_sizes":[],"default_left":[0,0,0,0,0,0,0,0,0,0,0,0,0,0,0],"id":27,"left_children":[1,3,5,7,-1,-1,-1,-1,9,11,13,-1,-1,-1,-1],"loss_changes":[7.2884035E-1,1.2037547E0,3.1097543E-1,1.1134279E0,0E0,0E0,0E0,0E0,6.9931936E-1,3.816263E-1,9.107468E-1,0E0,0E0,0E0,0E0],"parents":[2147483647,0,0,1,1,2,2,3,3,8,8,9,9,10,10],"right_children":[2,4,6,8,-1,-1,-1,-1,10,12,14,-1,-1,-1,-1],"split_conditions":[5.3592533E1,5.295593E1,6.940186E0,2.7186493E1,-8.1731886E-2,1.629649E-2,8.309986E-2,-6.9228575E-2,2.829141E1,5.0502357E1,3.0197506E1,1.1471194E-2,6.2111795E-2,-2.258876E-2,1.2027425E-2],"split_indices":[0,0,4,2,0,0,0,0,2,0,2,0,0,0,0],"split_type":[0,0,0,0,0,0,0,0,0,0,0,0,0,0,0],"sum_hessian":[2.8330652E2,2.6530847E2,1.7998034E1,2.52861E2,1.2447486E1,9.446707E0,8.551328E0,1.4478515E1,2.3838248E2,3.8656784E1,1.997257E2,2.1108294E1,1.7548489E1,8.563897E1,1.1408673E2],"tree_param":{"num_deleted":"0","num_feature":"6","num_nodes":"15","size_leaf_vector":"1"}},{"base_weights":[7.34701E-3,-2.1158274E-2,5.5499185E-2,-5.383031E-2,1.05962105E-1,-4.5389492E-2,9.763748E-2,-1.6172767E-2,-1.215751E-1,2.979384E-1,-6.2290672E-2,1.2815312E-1,-6.105878E-2,-1.2239419E-2,2.359806E-1,5.7163473E-2,-5.557002E-2,-8.901584E-2,-6.757963E-2,1.2624428E-1,2.8092438E-2,-6.791455E-2,5.6085926E-2,7.317339E-2,-8.963422E-3,7.6228864E-2,-1.2469735E-1,1.0826197E-1,1.513388E-1,-3.8909502E-2,-1.2754678E-4,3.2795988E-2,-4.8447534E-2,-4.00561E-2,6.1305854E-2,-8.774613E-2,2.5793519E-2,7.375741E-2,1.8029042E-2],"categories":[],"categories_nodes":[],"categories_segments":[],"categories_sizes":[],"default_left":[0,0,0,0,0,0,0,0,0,0,0,0,0,0,0,0,0,0,0,0,0,0,0,0,0,0,0,0,0,0,0,0,0,0,0,0,0,0,0],"id":28,"left_children":[1,3,5,7,9,11,13,15,17,19,21,23,-1,25,27,-1,29,-1,31,-1,-1,-1,-1,-1,-1,33,35,-1,37,-1,-1,-1,-1,-1,-1,-1,-1,-1,-1],"loss_changes":[3.8405216E-1,7.298625E-1,4.423647E-1,3.5658678E-1,1.160666E0,1.0388039E0,1.1158241E0,8.5489196E-1,6.1810625E-1,6.269809E-1,1.1144179E0,4.253285E-1,0E0,4.069929E-1,5.2424705E-1,0E0,4.1600788E-1,0E0,9.8195994E-1,0E0,0E0,0E0,0E0,0E0,0E0,8.865821E-1,9.0200955E-1,0E0,2.5163078E-1,0E0,0E0,0E0,0E0,0E0,0E0,0E0,0E0,0E0,0E0],"parents":[2147483647,0,0,1,1,2,2,3,3,4,4,5,5,6,6,7,7,8,8,9,9,10,10,11,11,13,13,14,14,16,16,18,18,25,25,26,26,28,28],"right_children":[2,4,6,8,10,12,14,16,18,20,22,24,-1,26,28,-1,30,-1,32,-1,-1,-1,-1,-1,-1,34,36,-1,38,-1,-1,-1,-1,-1,-1,-1,-1,-1,-1],"split_conditions":[8.199274E0,5.740352E1,5.5218395E1,5.6152843E1,5.7975227E1,7.040637E0,7.2870393E0,5.7734785E0,5.541624E0,7.214277E0,7.304846E0,5.4428043E1,-6.105878E-2,9.050826E0,5.5998028E1,5.7163473E-2,7.057876E0,-8.901584E-2,7.0723066E0,1.2624428E-1,2.8092438E-2,-6.791455E-2,5.6085926E-2,7.317339E-2,-8.963422E-3,6.032587E0,9.699748E0,1.0826197E-1,7.9408946E0,-3.8909502E-2,-1.2754678E-4,3.2795988E-2,-4.8447534E-2,-4.00561E-2,6.1305854E-2,-8.774613E-2,2.5793519E-2,7.375741E-2,1.8029042E-2],"split_indices":[5,1,1,1,1,4,4,5,4,5,4,1,0,5,1,0,5,0,4,0,0,0,0,0,0,4,5,0,4,0,0,0,0,0,0,0,0,0,0],"split_type":[0,0,0,0,0,0,0,0,0,0,0,0,0,0,0,0,0,0,0,0,0,0,0,0,0,0,0,0,0,0,0,0,0,0,0,0,0,0,0],"sum_hessian":[2.7978537E2,1.7573862E2,1.0404674E2,1.3981E2,3.5928623E1,3.0649805E1,7.3396935E1,8.986535E1,4.9944645E1,1.6782843E1,1.914578E1,1.622666E1,1.4423147E1,4.090477E1,3.249216E1,1.2602152E1,7.72632E1,9.517155E0,4.042749E1,8.119304E0,8.663539E0,1.1100972E1,8.044808E0,8.19561E0,8.03105E0,2.289134E1,1.801343E1,9.983985E0,2.2508177E1,2.782873E1,4.9434467E1,1.5574558E1,2.4852932E1,9.476132E0,1.3415209E1,9.112625E0,8.9008045E0,8.222548E0,1.4285628E1],"tree_param":{"num_deleted":"0","num_feature":"6","num_nodes":"39","size_leaf_vector":"1"}},{"base_weights":[-1.637806E-2,8.0345936E-2,-4.5047563E-2,-6.45644E-3,2.1775337E-1,-6.267658E-2,5.6521833E-2,-1.2914504E-1,1.21943675E-1,1.0162562E-1,2.253622E-2,-4.3117832E-2,-8.9742735E-2,3.3467296E-1,-7.540361E-2,-3.0376038E-2,-6.481973E-2,1.4764822E-1,4.0675174E-2,3.053067E-3,-2.3739288E-2],"categories":[],"categories_nodes":[],"categories_segments":[],"categories_sizes":[],"default_left":[0,0,0,0,0,0,0,0,0,0,0,0,0,0,0,0,0,0,0,0,0],"id":29,"left_children":[1,3,5,7,9,11,-1,-1,13,-1,-1,15,-1,17,-1,19,-1,-1,-1,-1,-1],"loss_changes":[7.784577E-1,7.6563084E-1,1.0224009E0,2.5383675E0,5.854124E-1,1.1564152E0,0E0,0E0,2.7933578E0,0E0,0E0,5.1503813E-1,0E0,8.9555883E-1,0E0,4.8145032E-1,0E0,0E0,0E0,0E0,0E0],"parents":[2147483647,0,0,1,1,2,2,3,3,4,4,5,5,8,8,11,11,13,13,15,15],"right_children":[2,4,6,8,10,12,-1,-1,14,-1,-1,16,-1,18,-1,20,-1,-1,-1,-1,-1],"split_conditions":[5.8880944E0,3.3686596E1,3.5088314E1,4.9577797E1,4.9998264E1,5.346276E1,5.6521833E-2,-1.2914504E-1,3.266736E1,1.0162562E-1,2.253622E-2,3.4587513E1,-8.9742735E-2,5.0811325E1,-7.540361E-2,5.0811325E1,-6.481973E-2,1.4764822E-1,4.0675174E-2,3.053067E-3,-2.3739288E-2],"split_indices":[4,3,3,0,0,0,0,0,3,0,0,3,0,0,0,0,0,0,0,0,0],"split_type":[0,0,0,0,0,0,0,0,0,0,0,0,0,0,0,0,0,0,0,0,0],"sum_hessian":[2.8073193E2,6.418062E1,2.1655132E2,3.933065E1,2.484997E1,2.0318042E2,1.3370892E1,8.004227E0,3.1326422E1,1.0274717E1,1.45752535E1,1.9038887E2,1.2791554E1,2.0781166E1,1.0545256E1,1.7961581E2,1.0773049E1,8.591E0,1.2190166E1,1.07478806E2,7.213701E1],"tree_param":{"num_deleted":"0","num_feature":"6","num_nodes":"21","size_leaf_vector":"1"}},{"base_weights":[5.9333122E-3,-2.393452E-1,2.2666803E-2,-8.99504E-4,-1.3220637E-1,-3.9139953E-2,7.946086E-2,-1.9130498E-1,2.5614535E-2,1.9458035E-1,3.5413727E-2,-7.9524204E-2,-1.4707386E-1,-6.1291113E-2,1.2960522E-1,-2.3797596E-2,3.739346E-1,1.388059E-1,-1.5792234E-2,-3.3915546E-2,1.3915158E-2,-4.191667E-2,2.2714918E-2,4.5952145E-2,-6.340705E-2,1.4746375E-1,4.7057267E-2,-1.8288448E-2,5.6835063E-2,-5.3922053E-2,4.9472456E-3],"categories":[],"categories_nodes":[],"categories_segments":[],"categories_sizes":[],"default_left":[0,0,0,0,0,0,0,0,0,0,0,0,0,0,0,0,0,0,0,0,0,0,0,0,0,0,0,0,0,0,0],"id":30,"left_children":[1,3,5,-1,-1,7,9,11,13,15,17,19,-1,21,-1,23,25,27,29,-1,-1,-1,-1,-1,-1,-1,-1,-1,-1,-1,-1],"loss_changes":[1.1415563E0,1.1798546E0,9.140999E-1,0E0,0E0,1.2287438E0,6.8799603E-1,1.6158248E0,3.6888134E0,1.4709988E0,5.1974803E-1,2.1043085E-1,0E0,1.1628556E0,0E0,7.84696E-1,8.051071E-1,5.8446574E-1,4.5592394E-1,0E0,0E0,0E0,0E0,0E0,0E0,0E0,0E0,0E0,0E0,0E0,0E0],"parents":[2147483647,0,0,1,1,2,2,5,5,6,6,7,7,8,8,9,9,10,10,11,11,13,13,15,15,16,16,17,17,18,18],"right_children":[2,4,6,-1,-1,8,10,12,14,16,18,20,-1,22,-1,24,26,28,30,-1,-1,-1,-1,-1,-1,-1,-1,-1,-1,-1,-1],"split_conditions":[4.7908314E1,5.635144E1,5.5975815E1,-8.99504E-4,-1.3220637E-1,5.009988E1,4.962624E1,8.145478E0,8.654354E0,6.9876533E0,5.6688164E1,7.322826E0,-1.4707386E-1,5.1781227E1,1.2960522E-1,6.032587E0,7.7064323E0,5.0522915E1,5.693361E1,-3.3915546E-2,1.3915158E-2,-4.191667E-2,2.2714918E-2,4.5952145E-2,-6.340705E-2,1.4746375E-1,4.7057267E-2,-1.8288448E-2,5.6835063E-2,-5.3922053E-2,4.9472456E-3],"split_indices":[0,1,1,0,0,0,0,4,4,4,1,4,0,0,0,4,4,0,1,0,0,0,0,0,0,0,0,0,0,0,0],"split_type":[0,0,0,0,0,0,0,0,0,0,0,0,0,0,0,0,0,0,0,0,0,0,0,0,0,0,0,0,0,0,0],"sum_hessian":[2.7816357E2,1.7762552E1,2.60401E2,9.671349E0,8.091203E0,1.2469249E2,1.3570853E2,3.7225677E1,8.746681E1,3.755146E1,9.815707E1,2.8908024E1,8.317654E0,7.418033E1,1.3286482E1,1.6932102E1,2.061936E1,3.251535E1,6.5641716E1,2.0606852E1,8.301173E0,4.3920055E1,3.0260273E1,8.881167E0,8.050935E0,9.81647E0,1.0802889E1,9.355663E0,2.3159685E1,9.986233E0,5.5655483E1],"tree_param":{"num_deleted":"0","num_feature":"6","num_nodes":"31","size_leaf_vector":"1"}},{"base_weights":[2.9739218E-3,3.0728666E-2,-5.3086583E-2,1.506402E-2,9.288456E-2,-8.576504E-2,4.598555E-2,7.103443E-2,2.110758E-3,-3.8530644E-2,-8.5717365E-2,-1.251293E-1,4.406235E-2,-3.5936953E-3,-6.451964E-2,-3.3393416E-3,-5.902145E-2,2.1696737E-2,-4.0158994E-2,-1.175454E-2,6.3518E-2],"categories":[],"categories_nodes":[],"categories_segments":[],"categories_sizes":[],"default_left":[0,0,0,0,0,0,0,0,0,0,0,0,0,0,0,0,0,0,0,0,0],"id":31,"left_children":[1,3,5,7,-1,9,-1,-1,11,13,-1,15,17,19,-1,-1,-1,-1,-1,-1,-1],"loss_changes":[4.309741E-1,9.73174E-1,7.0232224E-1,6.072813E-1,0E0,9.583065E-1,0E0,0E0,9.007941E-1,5.1094484E-1,0E0,5.03539E-1,1.0647569E0,6.332203E-1,0E0,0E0,0E0,0E0,0E0,0E0,0E0],"parents":[2147483647,0,0,1,1,2,2,3,3,5,5,8,8,9,9,11,11,12,12,13,13],"right_children":[2,4,6,8,-1,10,-1,-1,12,14,-1,16,18,20,-1,-1,-1,-1,-1,-1,-1],"split_conditions":[3.356507E1,3.3443165E1,5.7801342E1,2.7007326E1,9.288456E-2,5.7148968E1,4.598555E-2,7.103443E-2,2.8803488E1,3.1918049E1,-8.5717365E-2,3.2246315E1,5.752407E1,3.5297226E1,-6.451964E-2,-3.3393416E-3,-5.902145E-2,2.1696737E-2,-4.0158994E-2,-1.175454E-2,6.3518E-2],"split_indices":[3,3,1,2,0,1,0,0,2,2,0,3,1,3,0,0,0,0,0,0,0],"split_type":[0,0,0,0,0,0,0,0,0,0,0,0,0,0,0,0,0,0,0,0,0],"sum_hessian":[2.7699368E2,1.852767E2,9.171697E1,1.7701129E2,8.265417E0,8.0495026E1,1.1221951E1,8.248858E0,1.6876242E2,6.779544E1,1.2699585E1,4.1841503E1,1.2692092E2,5.8350998E1,9.44444E0,2.0499123E1,2.1342382E1,1.0534149E2,2.1579428E1,4.9947853E1,8.403147E0],"tree_param":{"num_deleted":"0","num_feature":"6","num_nodes":"21","size_leaf_vector":"1"}},{"base_weights":[-3.993405E-3,1.2054877E-2,-1.9760984E-1,-1.5448447E-2,8.260798E-2,-9.794559E-2,6.007906E-3,-6.914633E-2,-8.7566074E-4,-6.128796E-2,1.23651296E-1,1.367501E-1,-3.6643654E-2,2.1106274E-1,-1.21149E-1,1.0798057E-1,2.266437E-3,3.5753094E-2,-1.9812815E-2,2.5357503E-2,1.1989364E-1,-6.1287973E-2,1.7492763E-3],"categories":[],"categories_nodes":[],"categories_segments":[],"categories_sizes":[],"default_left":[0,0,0,0,0,0,0,0,0,0,0,0,0,0,0,0,0,0,0,0,0,0,0],"id":32,"left_children":[1,3,5,7,9,-1,-1,-1,11,-1,13,15,17,19,21,-1,-1,-1,-1,-1,-1,-1,-1],"loss_changes":[8.705018E-1,5.019861E-1,8.945232E-1,6.97154E-1,9.653988E-1,0E0,0E0,0E0,8.66978E-1,0E0,1.3782899E0,1.3411361E0,1.0290114E0,1.3788164E0,2.6144052E-1,0E0,0E0,0E0,0E0,0E0,0E0,0E0,0E0],"parents":[2147483647,0,0,1,1,2,2,3,3,4,4,8,8,10,10,11,11,12,12,13,13,14,14],"right_children":[2,4,6,8,10,-1,-1,-1,12,-1,14,16,18,20,22,-1,-1,-1,-1,-1,-1,-1,-1],"split_conditions":[9.340764E0,7.687482E0,9.962954E0,5.3962444E1,3.1303133E1,-9.794559E-2,6.007906E-3,-6.914633E-2,5.2108274E0,-6.128796E-2,3.3686596E1,5.5699135E1,5.505284E1,3.3075745E1,5.6107548E1,1.0798057E-1,2.266437E-3,3.5753094E-2,-1.9812815E-2,2.5357503E-2,1.1989364E-1,-6.1287973E-2,1.7492763E-3],"split_indices":[4,4,4,1,3,0,0,0,4,0,3,1,1,3,1,0,0,0,0,0,0,0,0],"split_type":[0,0,0,0,0,0,0,0,0,0,0,0,0,0,0,0,0,0,0,0,0,0,0],"sum_hessian":[2.80119E2,2.5867526E2,2.1443739E1,1.8611478E2,7.256048E1,1.15823765E1,9.861363E0,9.980852E0,1.7613391E2,8.152392E0,6.440809E1,3.632965E1,1.3980428E2,4.7462883E1,1.6945202E1,1.1142273E1,2.5187376E1,2.6456316E1,1.1334795E2,3.3312054E1,1.415083E1,8.734648E0,8.210554E0],"tree_param":{"num_deleted":"0","num_feature":"6","num_nodes":"23","size_leaf_vector":"1"}},{"base_weights":[-9.781094E-4,-1.9942945E-2,1.400844E-1,-4.5497254E-2,-9.5330365E-3,2.7167156E-2,9.190626E-2,4.7577016E-2,-3.743352E-2,7.2459586E-2,-3.2151587E-2,-9.299802E-2,1.1146201E-1,9.5733054E-2,-8.399439E-2,-6.89621E-2,6.521077E-2,9.2436485E-2,-5.552638E-2,1.6772121E-2,-4.1729465E-2],"categories":[],"categories_nodes":[],"categories_segments":[],"categories_sizes":[],"default_left":[0,0,0,0,0,0,0,0,0,0,0,0,0,0,0,0,0,0,0,0,0],"id":33,"left_children":[1,3,5,-1,7,9,-1,11,13,-1,-1,-1,15,17,19,-1,-1,-1,-1,-1,-1],"loss_changes":[7.3765373E-1,4.0322652E-1,8.195544E-1,0E0,3.6358598E-1,8.6191565E-1,0E0,1.9811002E0,9.505253E-1,0E0,0E0,0E0,3.620033E0,3.3560739E0,1.3724437E0,0E0,0E0,0E0,0E0,0E0,0E0],"parents":[2147483647,0,0,1,1,2,2,4,4,5,5,7,7,8,8,12,12,13,13,14,14],"right_children":[2,4,6,-1,8,10,-1,12,14,-1,-1,-1,16,18,20,-1,-1,-1,-1,-1,-1],"split_conditions":[3.2104996E1,5.6313925E0,8.484125E0,-4.5497254E-2,7.371338E0,6.700628E0,9.190626E-2,2.7994415E1,2.827E1,7.2459586E-2,-3.2151587E-2,-9.299802E-2,5.54753E1,8.387652E0,5.544274E1,-6.89621E-2,6.521077E-2,9.2436485E-2,-5.552638E-2,1.6772121E-2,-4.1729465E-2],"split_indices":[2,5,5,0,5,5,0,2,2,0,0,0,1,5,1,0,0,0,0,0,0],"split_type":[0,0,0,0,0,0,0,0,0,0,0,0,0,0,0,0,0,0,0,0,0],"sum_hessian":[2.7576163E2,2.4308504E2,3.267659E1,1.4898878E1,2.2818616E2,2.1667526E1,1.1009065E1,7.488364E1,1.5330252E2,8.088342E0,1.3579185E1,1.0006252E1,6.487738E1,3.9711727E1,1.13590805E2,1.7857176E1,4.7020206E1,2.142224E1,1.8289486E1,3.96465E1,7.39443E1],"tree_param":{"num_deleted":"0","num_feature":"6","num_nodes":"21","size_leaf_vector":"1"}},{"base_weights":[-7.6067885E-3,-3.7489634E-2,7.729849E-2,-1.4589358E-2,-2.845254E-1,2.3386829E-2,1.2367348E-1,-1.605051E-1,1.3823533E-2,2.7296387E-2,-1.740785E-1,7.694152E-2,-3.1736553E-2,-9.389922E-3,-1.00289464E-1,-5.9694875E-2,9.950111E-2,-1.6862282E-1,1.8351395E-1,7.673234E-2,-9.5874816E-2,-6.53113E-2,2.6127443E-2,5.4227777E-2,3.325808E-3,3.082631E-2,-6.8059646E-2,-1.1650717E-2,1.2898006E-1],"categories":[],"categories_nodes":[],"categories_segments":[],"categories_sizes":[],"default_left":[0,0,0,0,0,0,0,0,0,0,0,0,0,0,0,0,0,0,0,0,0,0,0,0,0,0,0,0,0],"id":34,"left_children":[1,3,5,7,9,11,-1,13,15,-1,-1,-1,17,19,-1,21,23,25,27,-1,-1,-1,-1,-1,-1,-1,-1,-1,-1],"loss_changes":[6.9986075E-1,1.1541202E0,1.5875833E0,7.7426696E-1,2.7261372E0,9.793596E-1,0E0,1.0797713E0,9.8451436E-1,0E0,0E0,0E0,1.5622827E0,2.1285098E0,0E0,2.7058918E0,7.123075E-1,9.371465E-1,1.5365281E0,0E0,0E0,0E0,0E0,0E0,0E0,0E0,0E0,0E0,0E0],"parents":[2147483647,0,0,1,1,2,2,3,3,4,4,5,5,7,7,8,8,12,12,13,13,15,15,16,16,17,17,18,18],"right_children":[2,4,6,8,10,12,-1,14,16,-1,-1,-1,18,20,-1,22,24,26,28,-1,-1,-1,-1,-1,-1,-1,-1,-1,-1],"split_conditions":[3.3847107E1,9.699748E0,9.376449E0,6.430733E0,3.2283592E1,6.175027E0,1.2367348E-1,3.2600754E1,5.6218906E1,2.7296387E-2,-1.740785E-1,7.694152E-2,5.655586E1,5.5796734E1,-1.00289464E-1,3.242348E1,3.2283592E1,3.4145523E1,7.953465E0,7.673234E-2,-9.5874816E-2,-6.53113E-2,2.6127443E-2,5.4227777E-2,3.325808E-3,3.082631E-2,-6.8059646E-2,-1.1650717E-2,1.2898006E-1],"split_indices":[3,5,5,5,3,5,0,3,1,0,0,0,1,1,0,3,3,3,5,0,0,0,0,0,0,0,0,0,0],"split_type":[0,0,0,0,0,0,0,0,0,0,0,0,0,0,0,0,0,0,0,0,0,0,0,0,0,0,0,0,0],"sum_hessian":[2.758476E2,2.040414E2,7.18062E1,1.8673376E2,1.730762E1,6.3466255E1,8.33994E0,3.0438046E1,1.5629573E2,8.756861E0,8.550759E0,1.0444417E1,5.302184E1,1.852099E1,1.1917056E1,8.411293E1,7.218279E1,3.2412376E1,2.0609463E1,1.003102E1,8.489969E0,3.796705E1,4.614588E1,3.1077684E1,4.1105106E1,8.284621E0,2.4127752E1,1.2078053E1,8.531408E0],"tree_param":{"num_deleted":"0","num_feature":"6","num_nodes":"29","size_leaf_vector":"1"}},{"base_weights":[-2.9124592E-3,-1.3941894E-2,7.5832814E-2,-2.7530778E-2,7.275943E-2,-1.4604676E-1,-7.060937E-3,2.3205718E-2,-2.6196083E-1,3.3414606E-3,-6.900298E-2,-1.1085326E-1,-3.9458357E-2,6.277437E-3,-2.6282616E-2],"categories":[],"categories_nodes":[],"categories_segments":[],"categories_sizes":[],"default_left":[0,0,0,0,0,0,0,0,0,0,0,0,0,0,0],"id":35,"left_children":[1,3,-1,5,-1,7,9,-1,11,13,-1,-1,-1,-1,-1],"loss_changes":[8.995126E-1,1.0653924E0,0E0,6.051178E-1,0E0,1.0115387E0,5.8641917E-1,0E0,4.594531E-1,4.684331E-1,0E0,0E0,0E0,0E0,0E0],"parents":[2147483647,0,0,1,1,3,3,5,5,6,6,8,8,9,9],"right_children":[2,4,-1,6,-1,8,10,-1,12,14,-1,-1,-1,-1,-1],"split_conditions":[5.4172344E1,1.0149175E1,7.5832814E-2,5.3438005E0,7.275943E-2,7.0755057E0,5.346276E1,2.3205718E-2,5.0042336E1,8.732636E0,-6.900298E-2,-1.1085326E-1,-3.9458357E-2,6.277437E-3,-2.6282616E-2],"split_indices":[0,5,0,4,0,5,0,0,0,4,0,0,0,0,0],"split_type":[0,0,0,0,0,0,0,0,0,0,0,0,0,0,0],"sum_hessian":[2.7026398E2,2.6073798E2,9.525989E0,2.4946783E2,1.127016E1,3.673713E1,2.127307E2,1.20469475E1,2.469018E1,2.0469135E2,8.039357E0,9.335294E0,1.5354887E1,1.7056187E2,3.4129475E1],"tree_param":{"num_deleted":"0","num_feature":"6","num_nodes":"15","size_leaf_vector":"1"}},{"base_weights":[-1.2790816E-2,2.711903E-2,-5.606916E-2,8.514678E-2,-2.7833562E-2,-1.4122505E-1,1.411169E-3,7.889771E-2,4.312835E-2,1.1715319E-1,-1.7622635E-1,-8.231062E-2,-9.824613E-2,1.2845902E-1,-8.410606E-2,-1.0497418E-1,1.20420605E-1,-9.302715E-2,2.670079E-1,-9.133409E-2,-8.551619E-2,-6.1868932E-2,-9.245328E-3,1.1264352E-1,-7.657949E-3,-1.3635822E-1,2.9579641E-2,5.730012E-3,7.9505466E-2,2.2812242E-4,9.973227E-2,-1.010454E-1,1.8194662E-2,2.485849E-2,-7.21351E-2,3.397628E-2,-2.90963E-2,-9.049288E-2,5.2904487E-2],"categories":[],"categories_nodes":[],"categories_segments":[],"categories_sizes":[],"default_left":[0,0,0,0,0,0,0,0,0,0,0,0,0,0,0,0,0,0,0,0,0,0,0,0,0,0,0,0,0,0,0,0,0,0,0,0,0,0,0],"id":36,"left_children":[1,3,5,7,9,11,13,-1,15,17,19,21,-1,23,25,-1,27,-1,29,-1,31,-1,33,-1,35,-1,37,-1,-1,-1,-1,-1,-1,-1,-1,-1,-1,-1,-1],"loss_changes":[4.6864572E-1,4.5011374E-1,6.3725275E-1,6.5130395E-1,1.5596193E0,7.6012707E-1,8.44342E-1,0E0,2.0441916E0,2.6581986E0,5.969666E-1,4.9950007E-1,0E0,1.3432045E0,2.3941405E0,0E0,9.345597E-1,0E0,9.3915975E-1,0E0,1.1799241E0,0E0,8.5995126E-1,0E0,3.3098513E-1,0E0,2.5666554E0,0E0,0E0,0E0,0E0,0E0,0E0,0E0,0E0,0E0,0E0,0E0,0E0],"parents":[2147483647,0,0,1,1,2,2,3,3,4,4,5,5,6,6,8,8,9,9,10,10,11,11,13,13,14,14,16,16,18,18,20,20,22,22,24,24,26,26],"right_children":[2,4,6,8,10,12,14,-1,16,18,20,22,-1,24,26,-1,28,-1,30,-1,32,-1,34,-1,36,-1,38,-1,-1,-1,-1,-1,-1,-1,-1,-1,-1,-1,-1],"split_conditions":[5.6152843E1,2.9861925E1,2.9559582E1,6.3475723E0,7.7087226E0,2.9098028E1,3.0646181E1,7.889771E-2,7.2300234E0,6.106433E0,8.387652E0,2.763289E1,-9.824613E-2,6.9381595E0,6.7356076E0,-1.0497418E-1,2.8963396E1,-9.302715E-2,3.0717974E1,-9.133409E-2,3.0883116E1,-6.1868932E-2,5.762757E1,1.1264352E-1,5.704176E1,-1.3635822E-1,3.125864E1,5.730012E-3,7.9505466E-2,2.2812242E-4,9.973227E-2,-1.010454E-1,1.8194662E-2,2.485849E-2,-7.21351E-2,3.397628E-2,-2.90963E-2,-9.049288E-2,5.2904487E-2],"split_indices":[1,2,2,5,5,2,2,0,5,5,5,2,0,5,5,0,2,0,2,0,2,0,1,0,1,0,2,0,0,0,0,0,0,0,0,0,0,0,0],"split_type":[0,0,0,0,0,0,0,0,0,0,0,0,0,0,0,0,0,0,0,0,0,0,0,0,0,0,0,0,0,0,0,0,0,0,0,0,0,0,0],"sum_hessian":[2.7131717E2,1.4114453E2,1.3017262E2,6.865668E1,7.2487854E1,5.2461792E1,7.771083E1,1.076753E1,5.788915E1,3.6662674E1,3.5825184E1,4.2328445E1,1.0133347E1,3.12667E1,4.6444126E1,8.374705E0,4.9514442E1,8.668957E0,2.7993717E1,1.1836594E1,2.398859E1,1.3179131E1,2.9149315E1,9.42404E0,2.184266E1,9.312191E0,3.7131935E1,3.2858242E1,1.66562E1,9.00209E0,1.8991627E1,8.026233E0,1.59623575E1,2.097225E1,8.177065E0,9.401075E0,1.2441586E1,1.1754981E1,2.5376955E1],"tree_param":{"num_deleted":"0","num_feature":"6","num_nodes":"39","size_leaf_vector":"1"}},{"base_weights":[1.269006E-2,-1.4846641E-2,1.3376275E-1,1.3478532E-2,-1.0617424E-1,8.8977605E-2,8.925732E-2,-1.1057131E-2,1.9940253E-1,-2.7378115E-1,9.129064E-2,-9.699091E-2,2.3822975E-1,-4.0608805E-2,1.7405929E-1,-3.6278415E-2,1.1051521E-1,-3.7771896E-2,-1.096362E-1,-4.846715E-2,9.116214E-2,-7.61995E-2,3.8895655E-2,1.0914454E-1,2.7521316E-2,-9.334339E-2,-3.804047E-3,9.016549E-2,8.470292E-3],"categories":[],"categories_nodes":[],"categories_segments":[],"categories_sizes":[],"default_left":[0,0,0,0,0,0,0,0,0,0,0,0,0,0,0,0,0,0,0,0,0,0,0,0,0,0,0,0,0],"id":37,"left_children":[1,3,5,7,9,-1,11,13,15,17,19,21,23,25,27,-1,-1,-1,-1,-1,-1,-1,-1,-1,-1,-1,-1,-1,-1],"loss_changes":[9.0417933E-1,5.715727E-1,4.849611E-1,7.6934046E-1,1.7312372E0,0E0,1.1571393E0,8.1482553E-1,1.5903742E0,5.5927014E-1,1.8172697E0,9.433517E-1,5.768534E-1,1.0767926E0,5.228149E-1,0E0,0E0,0E0,0E0,0E0,0E0,0E0,0E0,0E0,0E0,0E0,0E0,0E0,0E0],"parents":[2147483647,0,0,1,1,2,2,3,3,4,4,6,6,7,7,8,8,9,9,10,10,11,11,12,12,13,13,14,14],"right_children":[2,4,6,8,10,-1,12,14,16,18,20,22,24,26,28,-1,-1,-1,-1,-1,-1,-1,-1,-1,-1,-1,-1,-1,-1],"split_conditions":[5.7425564E1,3.1283901E1,2.7923079E1,9.023321E0,7.125743E0,8.8977605E-2,3.0123465E1,3.0743908E1,2.9263847E1,3.2173836E1,3.2104996E1,5.8156044E1,6.3031416E0,4.767938E0,3.0983776E1,-3.6278415E-2,1.1051521E-1,-3.7771896E-2,-1.096362E-1,-4.846715E-2,9.116214E-2,-7.61995E-2,3.8895655E-2,1.0914454E-1,2.7521316E-2,-9.334339E-2,-3.804047E-3,9.016549E-2,8.470292E-3],"split_indices":[1,2,2,4,4,0,2,2,2,2,2,1,4,4,2,0,0,0,0,0,0,0,0,0,0,0,0,0,0],"split_type":[0,0,0,0,0,0,0,0,0,0,0,0,0,0,0,0,0,0,0,0,0,0,0,0,0,0,0,0,0],"sum_hessian":[2.7118246E2,2.2092957E2,5.02529E1,1.6862442E2,5.2305145E1,8.5513735E0,4.1701523E1,1.4896327E2,1.9661158E1,2.8293112E1,2.4012033E1,1.8530436E1,2.3171087E1,1.284596E2,2.0503668E1,8.025433E0,1.1635726E1,1.5820474E1,1.2472637E1,1.1693179E1,1.2318854E1,1.0225231E1,8.305204E0,9.342533E0,1.3828555E1,9.32118E0,1.1913842E2,8.955022E0,1.1548646E1],"tree_param":{"num_deleted":"0","num_feature":"6","num_nodes":"29","size_leaf_vector":"1"}},{"base_weights":[-1.5195059E-2,-5.8805184E-3,-6.019558E-2,-5.1585514E-2,2.8977362E-3,4.351985E-2,-5.3949032E-2,-2.5832107E-2,5.6206595E-2,8.552952E-2,-8.81107E-2,-4.9583833E-3,2.114643E-2,-3.0445676E-2,3.772499E-2],"categories":[],"categories_nodes":[],"categories_segments":[],"categories_sizes":[],"default_left":[0,0,0,0,0,0,0,0,0,0,0,0,0,0,0],"id":38,"left_children":[1,3,-1,-1,5,7,9,-1,11,-1,13,-1,-1,-1,-1],"loss_changes":[5.5147237E-1,4.4373766E-1,0E0,0E0,5.6585586E-1,2.635098E-1,1.3641711E0,0E0,2.7034435E-1,0E0,7.093762E-1,0E0,0E0,0E0,0E0],"parents":[2147483647,0,0,1,1,4,4,5,5,6,6,8,8,10,10],"right_children":[2,4,-1,-1,6,8,10,-1,12,-1,14,-1,-1,-1,-1],"split_conditions":[1.0217444E1,5.3448386E0,-6.019558E-2,-5.1585514E-2,3.0353188E1,4.8558125E0,4.512032E0,-2.5832107E-2,2.8026577E1,8.552952E-2,9.2663765E0,-4.9583833E-3,2.114643E-2,-3.0445676E-2,3.772499E-2],"split_indices":[5,5,0,0,2,4,4,0,2,0,5,0,0,0,0],"split_type":[0,0,0,0,0,0,0,0,0,0,0,0,0,0,0],"sum_hessian":[2.6667145E2,2.5593947E2,1.0731976E1,1.0896865E1,2.450426E2,1.429224E2,1.02120224E2,1.1470111E1,1.3145227E2,8.202286E0,9.391794E1,3.4673145E1,9.677913E1,8.2772E1,1.1145929E1],"tree_param":{"num_deleted":"0","num_feature":"6","num_nodes":"15","size_leaf_vector":"1"}},{"base_weights":[-4.1271984E-3,-6.5342635E-2,3.5951823E-2,-9.536043E-2,5.2380268E-2,1.7752078E-1,1.6485048E-3,-1.2859545E-2,-1.9201277E-1,8.7683134E-2,8.3833836E-2,-5.7516098E-2,9.663983E-2,-1.4751059E-1,9.3565E-2,6.743874E-2,-3.7539378E-1,5.1905267E-2,-1.3204194E-3,-2.5107175E-1,8.910849E-2,2.3837002E-1,-1.11010924E-1,-2.6937589E-2,5.195022E-2,-3.942539E-2,8.1477046E-2,-7.097082E-2,-1.4894025E-1,8.883554E-2,-1.1664772E-1,7.810397E-2,-2.2393512E-2,9.41848E-2,2.3354908E-2,-9.283043E-2,3.385801E-2],"categories":[],"categories_nodes":[],"categories_segments":[],"categories_sizes":[],"default_left":[0,0,0,0,0,0,0,0,0,0,0,0,0,0,0,0,0,0,0,0,0,0,0,0,0,0,0,0,0,0,0,0,0,0,0,0,0],"id":39,"left_children":[1,3,5,7,-1,9,11,13,15,17,-1,19,21,-1,23,25,27,-1,-1,29,31,33,35,-1,-1,-1,-1,-1,-1,-1,-1,-1,-1,-1,-1,-1,-1],"loss_changes":[6.5692705E-1,8.643559E-1,7.856537E-1,7.6067466E-1,0E0,4.3326592E-1,7.320318E-1,3.1152346E0,2.0904965E0,2.1601622E-1,0E0,2.277743E0,1.4713832E0,0E0,9.632125E-1,1.0286665E0,5.2064586E-1,0E0,0E0,4.341077E0,1.7718767E0,5.773996E-1,1.2637763E0,0E0,0E0,0E0,0E0,0E0,0E0,0E0,0E0,0E0,0E0,0E0,0E0,0E0,0E0],"parents":[2147483647,0,0,1,1,2,2,3,3,5,5,6,6,7,7,8,8,9,9,11,11,12,12,14,14,15,15,16,16,19,19,20,20,21,21,22,22],"right_children":[2,4,6,8,-1,10,12,14,16,18,-1,20,22,-1,24,26,28,-1,-1,30,32,34,36,-1,-1,-1,-1,-1,-1,-1,-1,-1,-1,-1,-1,-1,-1],"split_conditions":[3.257097E1,5.800916E1,3.2986675E1,5.5906517E1,5.2380268E-2,3.281836E1,3.420546E1,5.8682823E0,6.6182246E0,6.7544336E0,8.3833836E-2,5.5975815E1,3.4951015E1,-1.4751059E-1,5.4724365E1,5.7128914E1,5.7231457E1,5.1905267E-2,-1.3204194E-3,6.109764E0,5.68065E1,5.6137203E1,6.890239E0,-2.6937589E-2,5.195022E-2,-3.942539E-2,8.1477046E-2,-7.097082E-2,-1.4894025E-1,8.883554E-2,-1.1664772E-1,7.810397E-2,-2.2393512E-2,9.41848E-2,2.3354908E-2,-9.283043E-2,3.385801E-2],"split_indices":[3,1,3,1,0,3,3,4,4,4,0,1,3,0,1,1,1,0,0,4,1,1,4,0,0,0,0,0,0,0,0,0,0,0,0,0,0],"split_type":[0,0,0,0,0,0,0,0,0,0,0,0,0,0,0,0,0,0,0,0,0,0,0,0,0,0,0,0,0,0,0,0,0,0,0,0,0],"sum_hessian":[2.6774832E2,1.05945465E2,1.6180286E2,9.541087E1,1.0534589E1,3.1555538E1,1.3024731E2,5.147721E1,4.3933662E1,1.9880611E1,1.1674926E1,8.0254906E1,4.999241E1,8.116933E0,4.336028E1,1.8192022E1,2.5741638E1,8.80489E0,1.1075722E1,3.459321E1,4.56617E1,2.971415E1,2.0278257E1,1.5505079E1,2.78552E1,9.684116E0,8.507906E0,1.7732302E1,8.009337E0,8.913523E0,2.5679684E1,2.0447657E1,2.5214045E1,1.5569862E1,1.4144288E1,9.928564E0,1.0349694E1],"tree_param":{"num_deleted":"0","num_feature":"6","num_nodes":"37","size_leaf_vector":"1"}},{"base_weights":[-1.13957925E-2,3.2310445E-2,-2.011259E-2,-4.6051744E-2,2.3231762E-2,1.3931335E-2,-1.3081455E-1,-5.8802277E-2,4.9211163E-2,-3.3263225E-2,1.5375069E-1,-1.7487608E-1,4.4240456E-2,1.6688848E-1,-2.3787036E-3,1.8674556E-2,-4.736616E-2,9.284898E-2,-4.2148508E-2,-2.0997537E-2,-1.092948E-1,1.795314E-2,9.62611E-2,-3.067933E-2,2.0913288E-2],"categories":[],"categories_nodes":[],"categories_segments":[],"categories_sizes":[],"default_left":[0,0,0,0,0,0,0,0,0,0,0,0,0,0,0,0,0,0,0,0,0,0,0,0,0],"id":40,"left_children":[1,-1,3,5,7,9,11,-1,13,15,17,19,-1,21,23,-1,-1,-1,-1,-1,-1,-1,-1,-1,-1],"loss_changes":[3.2359788E-1,0E0,2.8310627E-1,8.010121E-1,6.2436527E-1,6.087775E-1,8.7792563E-1,0E0,5.1945186E-1,1.1309574E0,1.5807443E0,1.3445873E0,0E0,5.3247696E-1,5.9796154E-1,0E0,0E0,0E0,0E0,0E0,0E0,0E0,0E0,0E0,0E0],"parents":[2147483647,0,0,2,2,3,3,4,4,5,5,6,6,8,8,9,9,10,10,11,11,13,13,14,14],"right_children":[2,-1,4,6,8,10,12,-1,14,16,18,20,-1,22,24,-1,-1,-1,-1,-1,-1,-1,-1,-1,-1],"split_conditions":[3.0917646E1,3.2310445E-2,8.199274E0,7.357592E0,3.1549011E1,5.1931686E1,5.2852932E1,-5.8802277E-2,4.9488E1,5.038452E1,5.295593E1,5.1220577E1,4.4240456E-2,4.88519E1,5.0974644E1,1.8674556E-2,-4.736616E-2,9.284898E-2,-4.2148508E-2,-2.0997537E-2,-1.092948E-1,1.795314E-2,9.62611E-2,-3.067933E-2,2.0913288E-2],"split_indices":[3,0,5,5,3,0,0,0,0,0,0,0,0,0,0,0,0,0,0,0,0,0,0,0,0],"split_type":[0,0,0,0,0,0,0,0,0,0,0,0,0,0,0,0,0,0,0,0,0,0,0,0,0],"sum_hessian":[2.6760416E2,1.5813611E1,2.5179053E2,1.5753099E2,9.425954E1,9.224567E1,6.5285324E1,8.712636E0,8.55469E1,6.896358E1,2.3282093E1,5.705087E1,8.234457E0,2.6076723E1,5.9470177E1,4.064789E1,2.8315683E1,1.3997371E1,9.284722E0,4.195387E1,1.5097003E1,1.7958113E1,8.11861E0,2.4805037E1,3.466514E1],"tree_param":{"num_deleted":"0","num_feature":"6","num_nodes":"25","size_leaf_vector":"1"}},{"base_weights":[1.2847491E-3,-7.37935E-3,4.7272768E-2,5.9042447E-3,-1.0918588E-1,-5.9906156E-3,7.656455E-2,-9.31797E-2,2.3911854E-2,4.6827335E-2,-1.5576288E-2,3.7827317E-2,-3.506727E-2,-6.1656744E-3,4.0185522E-2],"categories":[],"categories_nodes":[],"categories_segments":[],"categories_sizes":[],"default_left":[0,0,0,0,0,0,0,0,0,0,0,0,0,0,0],"id":41,"left_children":[1,3,-1,5,7,9,-1,-1,11,-1,13,-1,-1,-1,-1],"loss_changes":[4.2574856E-1,3.4302554E-1,0E0,7.897112E-1,1.0059024E0,3.9384466E-1,0E0,0E0,3.9204213E-1,0E0,3.1166035E-1,0E0,0E0,0E0,0E0],"parents":[2147483647,0,0,1,1,3,3,4,4,5,5,8,8,10,10],"right_children":[2,4,-1,6,8,10,-1,-1,12,-1,14,-1,-1,-1,-1],"split_conditions":[1.0149175E1,9.13414E0,4.7272768E-2,8.931029E0,6.4904227E0,4.2980084E0,7.656455E-2,-9.31797E-2,7.850655E0,4.6827335E-2,9.874236E0,3.7827317E-2,-3.506727E-2,-6.1656744E-3,4.0185522E-2],"split_indices":[5,5,0,5,4,4,0,0,4,0,4,0,0,0,0],"split_type":[0,0,0,0,0,0,0,0,0,0,0,0,0,0,0],"sum_hessian":[2.6548087E2,2.5360388E2,1.1876967E1,2.243281E2,2.9275795E1,2.1565672E2,8.671376E0,9.962036E0,1.9313759E1,1.0324943E1,2.0533177E2,1.0900673E1,8.413087E0,1.9552753E2,9.804244E0],"tree_param":{"num_deleted":"0","num_feature":"6","num_nodes":"15","size_leaf_vector":"1"}},{"base_weights":[2.6429344E-2,-5.217201E-2,5.7150267E-2,-1.3154876E-1,1.4873813E-1,9.6380875E-2,-4.7643818E-2,-2.233948E-1,-2.5194166E-2,1.4148656E-1,-4.1574415E-2,1.8856446E-1,2.6644526E-2,-2.6537544E-1,8.156339E-2,-4.1273027E-3,-9.932096E-2,-3.6681768E-2,3.2547478E-2,7.4939686E-5,3.792668E-1,5.4030597E-2,9.214342E-4,-2.3928333E-2,-1.0580379E-1,1.8370155E-1,-3.4615893E-2,-2.5191892E-2,6.5274216E-2,1.913704E-1,5.9235558E-2,4.374508E-2,-1.15373675E-2,-6.487473E-5,1.0142158E-1],"categories":[],"categories_nodes":[],"categories_segments":[],"categories_sizes":[],"default_left":[0,0,0,0,0,0,0,0,0,0,0,0,0,0,0,0,0,0,0,0,0,0,0,0,0,0,0,0,0,0,0,0,0,0,0],"id":42,"left_children":[1,3,5,7,9,11,13,15,17,-1,-1,19,21,23,25,-1,-1,-1,-1,27,29,-1,31,-1,-1,33,-1,-1,-1,-1,-1,-1,-1,-1,-1],"loss_changes":[6.2713903E-1,1.1638129E0,7.6773345E-1,5.1085395E-1,2.6421552E0,8.733586E-1,1.4309621E0,9.7699594E-1,4.443052E-1,0E0,0E0,2.1031578E0,3.706516E-1,4.9115288E-1,7.107422E-1,0E0,0E0,0E0,0E0,7.5235015E-1,1.589634E0,0E0,5.410274E-1,0E0,0E0,8.642196E-1,0E0,0E0,0E0,0E0,0E0,0E0,0E0,0E0,0E0],"parents":[2147483647,0,0,1,1,2,2,3,3,4,4,5,5,6,6,7,7,8,8,11,11,12,12,13,13,14,14,19,19,20,20,22,22,25,25],"right_children":[2,4,6,8,10,12,14,16,18,-1,-1,20,22,24,26,-1,-1,-1,-1,28,30,-1,32,-1,-1,34,-1,-1,-1,-1,-1,-1,-1,-1,-1],"split_conditions":[7.057876E0,8.039973E0,7.871333E0,6.430733E0,8.654354E0,8.049371E0,8.508981E0,5.741263E0,5.661383E1,1.4148656E-1,-4.1574415E-2,6.543273E0,5.4171738E1,5.5906517E1,9.54795E0,-4.1273027E-3,-9.932096E-2,-3.6681768E-2,3.2547478E-2,5.7128914E1,5.5150555E1,5.4030597E-2,5.317668E0,-2.3928333E-2,-1.0580379E-1,8.405927E0,-3.4615893E-2,-2.5191892E-2,6.5274216E-2,1.913704E-1,5.9235558E-2,4.374508E-2,-1.15373675E-2,-6.487473E-5,1.0142158E-1],"split_indices":[5,4,4,5,4,5,4,5,1,0,0,4,1,1,4,0,0,0,0,1,1,0,4,0,0,5,0,0,0,0,0,0,0,0,0],"split_type":[0,0,0,0,0,0,0,0,0,0,0,0,0,0,0,0,0,0,0,0,0,0,0,0,0,0,0,0,0,0,0,0,0,0,0],"sum_hessian":[2.597148E2,7.2977554E1,1.8673727E2,5.2312637E1,2.0664915E1,1.3587645E2,5.0860813E1,2.8067842E1,2.4244795E1,8.953629E0,1.1711287E1,5.8515972E1,7.736048E1,1.8943281E1,3.1917532E1,1.257579E1,1.5492052E1,1.3639136E1,1.0605659E1,2.943041E1,2.9085562E1,9.381374E0,6.797911E1,8.9045725E0,1.0038709E1,2.1736582E1,1.018095E1,2.1227201E1,8.203208E0,8.13963E0,2.0945932E1,1.4477252E1,5.3501858E1,1.1739315E1,9.997267E0],"tree_param":{"num_deleted":"0","num_feature":"6","num_nodes":"35","size_leaf_vector":"1"}},{"base_weights":[-7.4424944E-3,-2.499858E-2,1.3631772E-1,-1.2977003E-2,-8.749772E-2,2.4500886E-1,-3.4023423E-2,-1.0136625E-1,9.430796E-3,1.4244184E-2,1.3584599E-1,-3.198749E-2,-1.0266672E-1,-1.9163817E-2,8.622013E-2,-5.940385E-2,2.5093585E-2,4.5633495E-2,-9.423751E-3],"categories":[],"categories_nodes":[],"categories_segments":[],"categories_sizes":[],"default_left":[0,0,0,0,0,0,0,0,0,0,0,0,0,0,0,0,0,0,0],"id":43,"left_children":[1,3,5,7,-1,9,-1,11,13,-1,-1,15,-1,17,-1,-1,-1,-1,-1],"loss_changes":[6.6512144E-1,9.030275E-1,8.4304863E-1,4.4841498E-1,0E0,1.1219171E0,0E0,9.632658E-1,1.7064219E0,0E0,0E0,9.862437E-1,0E0,5.947448E-1,0E0,0E0,0E0,0E0,0E0],"parents":[2147483647,0,0,1,1,2,2,3,3,5,5,7,7,8,8,11,11,13,13],"right_children":[2,4,6,8,-1,10,-1,12,14,-1,-1,16,-1,18,-1,-1,-1,-1,-1],"split_conditions":[8.988295E0,8.732636E0,3.0883116E1,5.518116E0,-8.749772E-2,2.9826311E1,-3.4023423E-2,3.1679058E1,3.250697E1,1.4244184E-2,1.3584599E-1,7.4945602E0,-1.0266672E-1,2.739515E1,8.622013E-2,-5.940385E-2,2.5093585E-2,4.5633495E-2,-9.423751E-3],"split_indices":[4,4,2,4,0,2,0,2,2,0,0,5,0,2,0,0,0,0,0],"split_type":[0,0,0,0,0,0,0,0,0,0,0,0,0,0,0,0,0,0,0],"sum_hessian":[2.6355887E2,2.3487958E2,2.8679283E1,2.2637437E2,8.50519E0,2.0458681E1,8.220601E0,4.5787674E1,1.8058672E2,1.2398784E1,8.059898E0,3.726579E1,8.521885E0,1.6620192E2,1.4384785E1,1.4647782E1,2.2618004E1,1.3768115E1,1.524338E2],"tree_param":{"num_deleted":"0","num_feature":"6","num_nodes":"19","size_leaf_vector":"1"}},{"base_weights":[-2.9453976E-2,-4.274711E-3,-1.1736348E-1,-3.310312E-2,8.769917E-2,-6.4718515E-2,-2.4174482E-1,-1.22014426E-1,2.6896158E-2,2.3779655E-1,-4.884229E-2,-1.6043149E-1,2.5263282E-2,-4.5850437E-2,-7.923291E-2,6.867545E-2,-2.2532436E-1,1.2734835E-1,-1.6386113E-1,1.1334684E-1,-3.3159968E-2,-6.491068E-2,4.395858E-2,-9.5009334E-2,-5.343416E-2,2.5490364E-3,-9.049211E-2,-5.821175E-2,4.727471E-2,-8.179279E-2,4.055588E-3,1.6128674E-2,-4.041453E-2],"categories":[],"categories_nodes":[],"categories_segments":[],"categories_sizes":[],"default_left":[0,0,0,0,0,0,0,0,0,0,0,0,0,0,0,0,0,0,0,0,0,0,0,0,0,0,0,0,0,0,0,0,0],"id":44,"left_children":[1,3,5,7,9,11,13,15,17,19,21,23,-1,-1,-1,-1,25,27,29,-1,-1,-1,-1,-1,31,-1,-1,-1,-1,-1,-1,-1,-1],"loss_changes":[5.894408E-1,5.489123E-1,3.8806272E-1,8.4096855E-1,1.0125881E0,6.552162E-1,7.5598E-2,2.5769544E0,1.8034182E0,1.8126111E0,1.1894448E0,6.0278505E-1,0E0,0E0,0E0,0E0,1.5551515E0,1.2976813E0,9.257904E-1,0E0,0E0,0E0,0E0,0E0,2.1753818E-1,0E0,0E0,0E0,0E0,0E0,0E0,0E0,0E0],"parents":[2147483647,0,0,1,1,2,2,3,3,4,4,5,5,6,6,7,7,8,8,9,9,10,10,11,11,16,16,17,17,18,18,24,24],"right_children":[2,4,6,8,10,12,14,16,18,20,22,24,-1,-1,-1,-1,26,28,30,-1,-1,-1,-1,-1,32,-1,-1,-1,-1,-1,-1,-1,-1],"split_conditions":[8.777556E0,3.121265E1,5.147674E1,5.0196552E1,5.038452E1,5.0346325E1,5.2538498E1,2.7923079E1,5.2093445E1,3.229267E1,5.1830265E1,2.940785E1,2.5263282E-2,-4.5850437E-2,-7.923291E-2,6.867545E-2,4.85615E1,2.7823229E1,5.312957E1,1.1334684E-1,-3.3159968E-2,-6.491068E-2,4.395858E-2,-9.5009334E-2,4.911096E1,2.5490364E-3,-9.049211E-2,-5.821175E-2,4.727471E-2,-8.179279E-2,4.055588E-3,1.6128674E-2,-4.041453E-2],"split_indices":[5,2,0,0,0,0,0,2,0,2,0,2,0,0,0,0,0,2,0,0,0,0,0,0,0,0,0,0,0,0,0,0,0],"split_type":[0,0,0,0,0,0,0,0,0,0,0,0,0,0,0,0,0,0,0,0,0,0,0,0,0,0,0,0,0,0,0,0,0],"sum_hessian":[2.663269E2,2.0703458E2,5.9292313E1,1.5763268E2,4.940191E1,4.166328E1,1.7629034E1,6.351756E1,9.4115105E1,2.3534813E1,2.5867096E1,2.632887E1,1.5334408E1,9.45901E0,8.170024E0,1.3228016E1,5.0289543E1,6.165238E1,3.2462727E1,1.50190525E1,8.51576E0,1.3389992E1,1.2477104E1,8.772369E0,1.7556501E1,1.8012136E1,3.227741E1,8.745728E0,5.2906654E1,1.7255156E1,1.5207571E1,8.336755E0,9.219747E0],"tree_param":{"num_deleted":"0","num_feature":"6","num_nodes":"33","size_leaf_vector":"1"}},{"base_weights":[1.0863018E-2,-1.3831684E-1,3.754497E-2,-1.1089421E-1,-5.9657667E-2,1.9799475E-2,1.9575827E-1,4.631621E-2,-1.443279E-1,3.6657017E-2,-1.6149612E-1,1.1372865E-1,2.7941905E-3,-8.4400155E-2,2.7247388E-2,6.995172E-2,-6.7228146E-2,1.662566E-2,-9.265584E-2,2.2495126E-3,4.2618226E-2,2.113505E-2,-9.238162E-2],"categories":[],"categories_nodes":[],"categories_segments":[],"categories_sizes":[],"default_left":[0,0,0,0,0,0,0,0,0,0,0,0,0,0,0,0,0,0,0,0,0,0,0],"id":45,"left_children":[1,3,5,-1,7,9,11,-1,13,15,17,-1,-1,-1,-1,19,21,-1,-1,-1,-1,-1,-1],"loss_changes":[1.0415572E0,9.327484E-1,6.2311184E-1,0E0,6.4454347E-1,6.099505E-1,1.0439782E0,0E0,1.1043801E0,6.3166994E-1,7.854239E-1,0E0,0E0,0E0,0E0,8.2812536E-1,1.981086E0,0E0,0E0,0E0,0E0,0E0,0E0],"parents":[2147483647,0,0,1,1,2,2,4,4,5,5,6,6,8,8,9,9,10,10,15,15,16,16],"right_children":[2,4,6,-1,8,10,12,-1,14,16,18,-1,-1,-1,-1,20,22,-1,-1,-1,-1,-1,-1],"split_conditions":[4.8685814E1,3.1973671E1,3.471866E1,-1.1089421E-1,3.270036E1,3.2426945E1,3.513376E1,4.631621E-2,3.0318697E1,5.2009617E1,5.058633E1,1.1372865E-1,2.7941905E-3,-8.4400155E-2,2.7247388E-2,3.317151E1,3.315802E1,1.662566E-2,-9.265584E-2,2.2495126E-3,4.2618226E-2,2.113505E-2,-9.238162E-2],"split_indices":[0,3,3,0,3,2,3,0,2,0,0,0,0,0,0,3,3,0,0,0,0,0,0],"split_type":[0,0,0,0,0,0,0,0,0,0,0,0,0,0,0,0,0,0,0,0,0,0,0],"sum_hessian":[2.6168567E2,3.9699696E1,2.2198596E2,8.271483E0,3.1428211E1,1.9960223E2,2.2383728E1,8.138534E0,2.3289679E1,1.826246E2,1.6977638E1,9.4556E0,1.2928129E1,1.3323231E1,9.966448E0,1.383045E2,4.4320087E1,8.028176E0,8.949461E0,8.521441E1,5.30901E1,2.9408064E1,1.4912021E1],"tree_param":{"num_deleted":"0","num_feature":"6","num_nodes":"23","size_leaf_vector":"1"}},{"base_weights":[-7.3103756E-3,-7.7120565E-2,1.5947156E-2,-7.89338E-3,-2.4531266E-1,1.5292077E-1,-9.562638E-3,-5.7521015E-2,4.324325E-2,-1.4925668E-1,1.4682501E-2,-8.409992E-3,2.4839373E-1,-6.341811E-2,4.514917E-2,-1.3320658E-1,3.119074E-2,2.3361288E-2,1.0675951E-1,-2.3315633E-2,-1.0949661E-1,1.1696504E-2,8.8717826E-2,1.3608733E-3,-6.087636E-2,-3.9829716E-2,2.414972E-2,6.337988E-2,-5.447981E-3],"categories":[],"categories_nodes":[],"categories_segments":[],"categories_sizes":[],"default_left":[0,0,0,0,0,0,0,0,0,0,0,0,0,0,0,0,0,0,0,0,0,0,0,0,0,0,0,0,0],"id":46,"left_children":[1,3,5,7,9,11,13,15,-1,-1,-1,-1,17,19,21,23,-1,-1,-1,25,-1,27,-1,-1,-1,-1,-1,-1,-1],"loss_changes":[4.2623535E-1,7.637165E-1,6.880716E-1,4.1130483E-1,1.9894071E0,5.493463E-1,4.8907438E-1,4.9667916E-1,0E0,0E0,0E0,0E0,5.5040514E-1,1.2348108E0,8.385473E-1,3.7913474E-1,0E0,0E0,0E0,1.1950717E0,0E0,5.8609533E-1,0E0,0E0,0E0,0E0,0E0,0E0,0E0],"parents":[2147483647,0,0,1,1,2,2,3,3,4,4,5,5,6,6,7,7,12,12,13,13,14,14,15,15,19,19,21,21],"right_children":[2,4,6,8,10,12,14,16,-1,-1,-1,-1,18,20,22,24,-1,-1,-1,26,-1,28,-1,-1,-1,-1,-1,-1,-1],"split_conditions":[5.516677E1,3.356507E1,6.3475723E0,3.2908646E1,8.151422E0,5.5892124E1,3.3017387E1,5.481283E1,4.324325E-2,-1.4925668E-1,1.4682501E-2,-8.409992E-3,5.8609085E0,9.65448E0,9.609123E0,7.807978E0,3.119074E-2,2.3361288E-2,1.0675951E-1,7.824561E0,-1.0949661E-1,5.5598385E1,8.8717826E-2,1.3608733E-3,-6.087636E-2,-3.9829716E-2,2.414972E-2,6.337988E-2,-5.447981E-3],"split_indices":[1,3,5,3,5,1,3,1,0,0,0,0,5,5,5,5,0,0,0,5,0,1,0,0,0,0,0,0,0],"split_type":[0,0,0,0,0,0,0,0,0,0,0,0,0,0,0,0,0,0,0,0,0,0,0,0,0,0,0,0,0],"sum_hessian":[2.624998E2,6.56048E1,1.9689499E2,4.6478306E1,1.9126495E1,3.0915945E1,1.6597905E2,3.636308E1,1.0115226E1,8.974769E0,1.0151727E1,1.0481687E1,2.043426E1,8.364964E1,8.23294E1,2.5621138E1,1.07419405E1,1.071968E1,9.714579E0,7.543506E1,8.214588E0,7.4183014E1,8.146385E0,1.1146387E1,1.44747505E1,3.5450417E1,3.998464E1,9.072207E0,6.511081E1],"tree_param":{"num_deleted":"0","num_feature":"6","num_nodes":"29","size_leaf_vector":"1"}},{"base_weights":[1.5895691E-3,-2.5644192E-2,1.3334236E-1,-7.547534E-2,-1.381853E-2,2.6981378E-2,1.10646755E-1,6.1004303E-2,-5.100734E-2,7.023277E-2,-6.26216E-2,2.3030777E-1,-4.766342E-2,-1.377868E-1,-9.436988E-3,2.5102152E-2,-9.761476E-2,-9.998124E-3,1.0693226E-1,-3.3850387E-2,